{"learner":{"attributes":{"scikit_learn":"{\"_estimator_type\": \"classifier\"}"},"feature_names":["tenure","MonthlyCharges","TotalCharges","Contract","InternetService","OnlineSecurity","TechSupport","PaymentMethod"],"feature_types":["int","float","float","int","int","int","int","int"],"gradient_booster":{"model":{"gbtree_model_param":{"num_parallel_tree":"1","num_trees":"100"},"iteration_indptr":[0,1,2,3,4,5,6,7,8,9,10,11,12,13,14,15,16,17,18,19,20,21,22,23,24,25,26,27,28,29,30,31,32,33,34,35,36,37,38,39,40,41,42,43,44,45,46,47,48,49,50,51,52,53,54,55,56,57,58,59,60,61,62,63,64,65,66,67,68,69,70,71,72,73,74,75,76,77,78,79,80,81,82,83,84,85,86,87,88,89,90,91,92,93,94,95,96,97,98,99,100],"tree_info":[0,0,0,0,0,0,0,0,0,0,0,0,0,0,0,0,0,0,0,0,0,0,0,0,0,0,0,0,0,0,0,0,0,0,0,0,0,0,0,0,0,0,0,0,0,0,0,0,0,0,0,0,0,0,0,0,0,0,0,0,0,0,0,0,0,0,0,0,0,0,0,0,0,0,0,0,0,0,0,0,0,0,0,0,0,0,0,0,0,0,0,0,0,0,0,0,0,0,0,0],"trees":[{"base_weights":[5.0316807E-8,8.318907E-1,-1.0239061E0,8.6819716E-2,1.3755059E0,-1.1624337E0,-5.838936E-1,8.5154647E-1,-3.332352E-1,2.2954526E0,7.8767425E-1,-8.59088E-1,-1.2386568E0,-2.6684657E-1,-9.2187446E-1,1.4807996E0,1.5349577E-1,-1.262843E-1,-8.3688855E-1,2.4293394E0,9.7895634E-1,-1.0123447E0,8.940548E-1,-1.0384222E0,-5.636929E-1,-1.1403694E0,-1.2936065E-1,-5.3187853E-1,-8.319186E-2,-7.6477873E-1,-1.2772016E-1,1.989906E0,1.3024706E0,4.381219E-1,-3.8992384E-1,1.2061495E-1,-6.4919835E-1,-3.4313074E-1,-9.150815E-1,2.94276E0,2.1808908E0,1.9194278E-1,1.8494257E0,-1.1195778E0,-4.5987278E-1,1.2146528E0,4.4819728E-1,2.0372327E-1,-1.147896E0,-7.259968E-1,1.09900944E-1,-1.2169435E0,-7.8586143E-1,3.0674752E-2,-6.4568543E-1,1.7404221E-1,-3.7109232E-1,-9.864165E-1,-4.2501616E-1,6.6185854E-2,2.249897E-1,3.4558054E-2,1.4005063E-1,-3.086949E-2,5.6979824E-2,-7.2258286E-2,4.0883955E-2,3.3107292E-2,-3.614511E-2,-4.5856126E-2,-1.06458366E-1,3.0674753E-3,-7.594832E-2,-3.5463776E-2,-9.397193E-2,3.046743E-1,3.4270957E-2,1.3755815E-1,2.5197583E-1,1.1241039E-1,-1.7406221E-2,5.851661E-2,2.1827586E-1,-3.626311E-2,-1.19930044E-1,1.8799422E-2,-8.29382E-2,8.214661E-2,1.6201167E-1,1.5860638E-3,8.536353E-2,6.6185854E-2,-4.386848E-2,-3.626311E-2,-1.164568E-1,-8.045519E-2,2.2211956E-2,6.289045E-2,-6.541026E-2,-9.1235384E-2,-1.2658732E-1,1.17470315E-2,-8.7415926E-2,-6.102646E-2,6.6185854E-2,-4.5701753E-2,-8.654744E-2,-1.0752008E-2,7.0540965E-2,-4.7710232E-2,6.488991E-2,6.027591E-3,-1.04945675E-1,-4.640723E-3,-7.897918E-2],"categories":[],"categories_nodes":[],"categories_segments":[],"categories_sizes":[],"default_left":[0,0,0,0,0,0,0,0,0,0,0,0,0,0,0,0,0,0,0,0,0,0,0,0,0,0,0,0,0,0,0,0,0,0,0,0,0,0,0,0,0,0,0,0,0,0,0,0,0,0,0,0,0,0,0,0,0,0,0,0,0,0,0,0,0,0,0,0,0,0,0,0,0,0,0,0,0,0,0,0,0,0,0,0,0,0,0,0,0,0,0,0,0,0,0,0,0,0,0,0,0,0,0,0,0,0,0,0,0,0,0,0,0,0,0],"id":0,"left_children":[1,3,5,7,9,11,13,15,17,19,21,23,25,27,29,31,33,35,37,39,41,43,45,47,49,51,-1,53,55,57,-1,59,61,63,65,67,69,71,73,75,77,79,81,83,85,87,89,91,93,95,97,99,101,103,105,107,109,111,113,-1,-1,-1,-1,-1,-1,-1,-1,-1,-1,-1,-1,-1,-1,-1,-1,-1,-1,-1,-1,-1,-1,-1,-1,-1,-1,-1,-1,-1,-1,-1,-1,-1,-1,-1,-1,-1,-1,-1,-1,-1,-1,-1,-1,-1,-1,-1,-1,-1,-1,-1,-1,-1,-1,-1,-1],"loss_changes":[9.3720874E2,2.457638E2,2.9385254E1,8.288809E1,1.879596E2,7.5862427E0,1.2624371E1,3.994329E1,1.726968E1,2.1644348E1,4.219539E1,3.567398E0,1.2734985E-1,3.0407863E0,2.245613E0,1.7643051E0,7.0493546E0,1.5484536E1,1.5535164E0,9.276062E0,9.411375E0,2.2576714E-1,2.8633926E1,6.705372E0,3.5564537E0,2.161255E0,0E0,1.6688638E0,2.924964E0,2.7828732E0,0E0,2.1543198E0,3.120987E0,3.092238E0,4.497851E0,8.428849E0,2.5549068E0,1.3014965E0,2.350502E-1,9.029236E0,2.0213867E1,3.130694E0,1.5265484E0,1.5481663E-1,1.0486562E0,1.7506454E1,1.5230875E1,1.6747444E0,1.5225601E-1,2.0971098E0,3.2041283E0,2.2546387E-1,1.9550238E0,2.5434551E0,4.9471188E-1,3.229525E0,2.314814E0,1.7113819E0,2.524504E0,0E0,0E0,0E0,0E0,0E0,0E0,0E0,0E0,0E0,0E0,0E0,0E0,0E0,0E0,0E0,0E0,0E0,0E0,0E0,0E0,0E0,0E0,0E0,0E0,0E0,0E0,0E0,0E0,0E0,0E0,0E0,0E0,0E0,0E0,0E0,0E0,0E0,0E0,0E0,0E0,0E0,0E0,0E0,0E0,0E0,0E0,0E0,0E0,0E0,0E0,0E0,0E0,0E0,0E0,0E0,0E0],"parents":[2147483647,0,0,1,1,2,2,3,3,4,4,5,5,6,6,7,7,8,8,9,9,10,10,11,11,12,12,13,13,14,14,15,15,16,16,17,17,18,18,19,19,20,20,21,21,22,22,23,23,24,24,25,25,27,27,28,28,29,29,31,31,32,32,33,33,34,34,35,35,36,36,37,37,38,38,39,39,40,40,41,41,42,42,43,43,44,44,45,45,46,46,47,47,48,48,49,49,50,50,51,51,52,52,53,53,54,54,55,55,56,56,57,57,58,58],"right_children":[2,4,6,8,10,12,14,16,18,20,22,24,26,28,30,32,34,36,38,40,42,44,46,48,50,52,-1,54,56,58,-1,60,62,64,66,68,70,72,74,76,78,80,82,84,86,88,90,92,94,96,98,100,102,104,106,108,110,112,114,-1,-1,-1,-1,-1,-1,-1,-1,-1,-1,-1,-1,-1,-1,-1,-1,-1,-1,-1,-1,-1,-1,-1,-1,-1,-1,-1,-1,-1,-1,-1,-1,-1,-1,-1,-1,-1,-1,-1,-1,-1,-1,-1,-1,-1,-1,-1,-1,-1,-1,-1,-1,-1,-1,-1,-1],"split_conditions":[1E0,6.86E1,9.355E1,4E0,1.1E1,1E0,2E0,1E0,2E0,1E0,1E0,2E0,2E0,1.015E2,7.8549E3,4.4E1,2E0,1.2583E3,1E0,2E0,8.38E1,7.92E1,3.08825E3,1.20835E3,8.2E1,7.245E1,-1.2936065E-1,3.7697E3,6.4809E3,1.057E2,-1.2772016E-1,2.475E1,4.49E1,1.945E1,2.91E1,5.45E1,1E0,1.7E1,7.92E1,1E0,7.58E1,1.936E2,2.494E2,6.945E1,8.055E1,8.805E1,9.565E1,1E0,2.2E1,6.9E1,1E0,1E0,7.44E1,2E0,1E0,5.4E1,7.9859E3,9.44E1,1.099E2,6.6185854E-2,2.249897E-1,3.4558054E-2,1.4005063E-1,-3.086949E-2,5.6979824E-2,-7.2258286E-2,4.0883955E-2,3.3107292E-2,-3.614511E-2,-4.5856126E-2,-1.06458366E-1,3.0674753E-3,-7.594832E-2,-3.5463776E-2,-9.397193E-2,3.046743E-1,3.4270957E-2,1.3755815E-1,2.5197583E-1,1.1241039E-1,-1.7406221E-2,5.851661E-2,2.1827586E-1,-3.626311E-2,-1.19930044E-1,1.8799422E-2,-8.29382E-2,8.214661E-2,1.6201167E-1,1.5860638E-3,8.536353E-2,6.6185854E-2,-4.386848E-2,-3.626311E-2,-1.164568E-1,-8.045519E-2,2.2211956E-2,6.289045E-2,-6.541026E-2,-9.1235384E-2,-1.2658732E-1,1.17470315E-2,-8.7415926E-2,-6.102646E-2,6.6185854E-2,-4.5701753E-2,-8.654744E-2,-1.0752008E-2,7.0540965E-2,-4.7710232E-2,6.488991E-2,6.027591E-3,-1.04945675E-1,-4.640723E-3,-7.897918E-2],"split_indices":[3,1,1,0,0,5,3,6,4,5,4,7,3,1,2,2,0,2,7,0,1,1,2,2,1,1,0,2,2,1,0,1,2,1,1,1,6,0,2,6,1,2,2,1,1,1,1,6,0,0,6,6,1,7,5,0,2,1,1,0,0,0,0,0,0,0,0,0,0,0,0,0,0,0,0,0,0,0,0,0,0,0,0,0,0,0,0,0,0,0,0,0,0,0,0,0,0,0,0,0,0,0,0,0,0,0,0,0,0,0,0,0,0,0,0],"split_type":[0,0,0,0,0,0,0,0,0,0,0,0,0,0,0,0,0,0,0,0,0,0,0,0,0,0,0,0,0,0,0,0,0,0,0,0,0,0,0,0,0,0,0,0,0,0,0,0,0,0,0,0,0,0,0,0,0,0,0,0,0,0,0,0,0,0,0,0,0,0,0,0,0,0,0,0,0,0,0,0,0,0,0,0,0,0,0,0,0,0,0,0,0,0,0,0,0,0,0,0,0,0,0,0,0,0,0,0,0,0,0,0,0,0,0],"sum_hessian":[1.0982969E3,6.0607117E2,4.922257E2,2.561523E2,3.4991888E2,3.7311685E2,1.1910888E2,9.045257E1,1.6569975E2,1.3528897E2,2.1462991E2,7.739153E1,2.957253E2,6.238108E1,5.6727795E1,4.698075E1,4.3471817E1,1.1832912E2,4.7370632E1,1.2203299E2,1.325598E1,1.1501512E1,2.031284E2,4.659087E1,3.080066E1,1.13845474E2,1.8187984E2,2.4757492E1,3.762359E1,4.1522408E1,1.5205389E1,9.552103E0,3.742865E1,2.865631E1,1.4815507E1,8.090047E1,3.742865E1,7.2128124E0,4.015782E1,3.6259003E1,8.577399E1,7.6026945E0,5.6532855E0,8.77234E0,2.7291722E0,1.1715947E2,8.5968925E1,3.7038767E0,4.2886993E1,2.4757492E1,6.043167E0,9.1622215E1,2.222326E1,4.288699E0,2.0468792E1,2.007891E1,1.754468E1,2.3977728E1,1.754468E1,2.1443496E0,7.4077535E0,3.8988175E0,3.352983E1,4.0937586E0,2.4562551E1,1.0526808E1,4.288699E0,5.6532856E1,2.436761E1,2.7096783E1,1.0331866E1,4.288699E0,2.9241133E0,2.3392906E0,3.781853E1,3.469948E1,1.559527E0,2.6901842E1,5.8872147E1,1.559527E0,6.043167E0,1.754468E0,3.8988175E0,1.3645861E0,7.4077535E0,1.1696453E0,1.559527E0,6.1016495E1,5.6142975E1,4.210723E1,4.38617E1,2.1443496E0,1.559527E0,1.3645861E0,4.1522408E1,2.3003023E1,1.754468E0,3.7038767E0,2.3392906E0,1.540033E1,7.6221886E1,1.9494088E0,2.0273851E1,2.1443496E0,2.1443496E0,1.2671157E1,7.797635E0,1.3645862E1,6.433049E0,1.6375034E1,1.1696453E0,1.3645861E0,2.2613142E1,9.162221E0,8.382458E0],"tree_param":{"num_deleted":"0","num_feature":"8","num_nodes":"115","size_leaf_vector":"1"}},{"base_weights":[-3.4447368E-3,7.205425E-1,-9.7311515E-1,1.0791968E0,-8.216137E-2,-1.1121502E0,-5.44338E-1,1.5871599E0,5.895459E-1,-3.2170838E-1,4.2549217E-1,-8.1020725E-1,-1.1895216E0,-2.4464294E-1,-8.7351924E-1,8.8568735E-1,2.001586E0,-3.0221084E-1,8.861368E-1,4.3806812E-1,-5.215852E-1,1.0149403E0,-2.447978E-1,-5.7910866E-1,-1.0438709E0,-1.0900669E0,-1.2455986E-1,-5.564464E-1,-1.0153151E-1,-6.8447584E-1,-1.1628343E-1,1.3887558E0,4.8140666E-1,2.3077492E-1,1.7472057E0,-1.7552683E-1,-1.146883E-1,4.0335327E-1,1.1473701E0,-2.8743055E-1,5.7065374E-1,-8.033032E-1,-1.8768667E-1,3.244154E-1,1.9664226E0,-3.5546128E-2,-7.0553666E-1,-6.974348E-1,-1.9320102E-1,-1.1957011E-1,-5.748635E-1,-1.1676905E0,-7.3860097E-1,4.1213457E-2,-6.9110084E-1,1.2496609E-1,-3.9820158E-1,-9.187878E-1,-4.2733684E-1,1.4623408E-1,5.3312432E-2,7.142579E-2,-1.8019201E-2,3.2947525E-2,1.8408242E-1,1.8850094E-2,-3.825317E-2,1.9305425E-2,1.0656734E-1,1.5841517E-1,9.6811526E-2,7.862173E-3,-4.421584E-2,8.151314E-2,1.4412627E-2,-4.2747673E-2,-8.562876E-2,5.843661E-2,-4.1660246E-2,7.060944E-2,-1.939866E-2,1.5376774E-2,2.1248153E-1,2.5853863E-2,-3.8477603E-2,-8.608373E-2,2.9227862E-2,-1.3145787E-2,-8.264368E-2,-5.0954815E-2,8.4266484E-2,3.2444228E-3,-9.8026484E-2,-8.637712E-2,-1.217457E-1,1.0928744E-2,-8.2529835E-2,-8.069597E-2,7.362344E-2,-2.6790917E-2,-8.554851E-2,-1.3043255E-2,5.8796443E-2,-4.98023E-2,6.036053E-2,-7.093427E-3,-1.0990608E-1,3.0987753E-2,-8.840283E-2],"categories":[],"categories_nodes":[],"categories_segments":[],"categories_sizes":[],"default_left":[0,0,0,0,0,0,0,0,0,0,0,0,0,0,0,0,0,0,0,0,0,0,0,0,0,0,0,0,0,0,0,0,0,0,0,0,0,0,0,0,0,0,0,0,0,0,0,0,0,0,0,0,0,0,0,0,0,0,0,0,0,0,0,0,0,0,0,0,0,0,0,0,0,0,0,0,0,0,0,0,0,0,0,0,0,0,0,0,0,0,0,0,0,0,0,0,0,0,0,0,0,0,0,0,0,0,0,0,0],"id":1,"left_children":[1,3,5,7,9,11,13,15,17,19,21,23,25,27,29,31,33,35,37,39,41,43,45,47,49,51,-1,53,55,57,-1,59,61,-1,63,65,-1,67,69,71,73,75,77,79,81,83,85,87,89,-1,91,93,95,97,99,101,103,105,107,-1,-1,-1,-1,-1,-1,-1,-1,-1,-1,-1,-1,-1,-1,-1,-1,-1,-1,-1,-1,-1,-1,-1,-1,-1,-1,-1,-1,-1,-1,-1,-1,-1,-1,-1,-1,-1,-1,-1,-1,-1,-1,-1,-1,-1,-1,-1,-1,-1,-1],"loss_changes":[7.711324E2,1.8114163E2,2.7386597E1,1.0719595E2,2.3867842E1,7.297241E0,1.1322109E1,6.0087402E1,5.9236046E1,2.0449226E1,2.5136889E1,3.4597435E0,2.001648E-1,2.7367167E0,2.2305527E0,1.5768856E1,6.3239136E0,5.832888E0,2.0670029E1,2.8839602E0,9.808464E0,2.1511478E1,2.8942976E0,1.6957102E0,1.8889046E0,2.1038818E0,0E0,1.5952978E0,3.014903E0,1.7702694E0,0E0,1.454277E0,7.267667E0,0E0,9.579407E0,3.8562474E0,0E0,8.203657E0,6.9368744E0,3.1988895E-1,2.4104257E0,7.713852E-1,9.037021E0,4.2391367E0,3.6869469E0,2.3462648E0,1.7088966E0,2.1033487E0,3.9651854E0,0E0,2.684329E0,2.6935577E-1,1.7361155E0,3.2607548E0,8.8006496E-1,3.1256518E0,2.234959E0,2.6600056E0,6.665805E0,0E0,0E0,0E0,0E0,0E0,0E0,0E0,0E0,0E0,0E0,0E0,0E0,0E0,0E0,0E0,0E0,0E0,0E0,0E0,0E0,0E0,0E0,0E0,0E0,0E0,0E0,0E0,0E0,0E0,0E0,0E0,0E0,0E0,0E0,0E0,0E0,0E0,0E0,0E0,0E0,0E0,0E0,0E0,0E0,0E0,0E0,0E0,0E0,0E0,0E0],"parents":[2147483647,0,0,1,1,2,2,3,3,4,4,5,5,6,6,7,7,8,8,9,9,10,10,11,11,12,12,13,13,14,14,15,15,16,16,17,17,18,18,19,19,20,20,21,21,22,22,23,23,24,24,25,25,27,27,28,28,29,29,31,31,32,32,34,34,35,35,37,37,38,38,39,39,40,40,41,41,42,42,43,43,44,44,45,45,46,46,47,47,48,48,50,50,51,51,52,52,53,53,54,54,55,55,56,56,57,57,58,58],"right_children":[2,4,6,8,10,12,14,16,18,20,22,24,26,28,30,32,34,36,38,40,42,44,46,48,50,52,-1,54,56,58,-1,60,62,-1,64,66,-1,68,70,72,74,76,78,80,82,84,86,88,90,-1,92,94,96,98,100,102,104,106,108,-1,-1,-1,-1,-1,-1,-1,-1,-1,-1,-1,-1,-1,-1,-1,-1,-1,-1,-1,-1,-1,-1,-1,-1,-1,-1,-1,-1,-1,-1,-1,-1,-1,-1,-1,-1,-1,-1,-1,-1,-1,-1,-1,-1,-1,-1,-1,-1,-1,-1],"split_conditions":[1E0,1E0,9.355E1,1.1E1,7.04E1,1E0,2E0,1E0,1E0,3.19E1,3E1,5E1,2E0,1E2,7.2E1,8.08E1,3E0,6.525E1,2E0,1.945E1,2.97E1,9.005E1,1E0,3E0,2E0,7.245E1,-1.2455986E-1,3.7697E3,6.4809E3,1.057E2,-1.1628343E-1,1E0,5.55E1,2.3077492E-1,7.01E1,1.9E1,-1.146883E-1,9.68E1,1.54005E3,1.915E1,2.025E1,1E0,2.3255E2,1.4E1,3E0,4.7984E3,1.1045E2,1.20835E3,4.2E1,-1.1957011E-1,1E0,1E0,7.44E1,2E0,9.5E1,5.4E1,7.9859E3,9.63E1,1.099E2,1.4623408E-1,5.3312432E-2,7.142579E-2,-1.8019201E-2,3.2947525E-2,1.8408242E-1,1.8850094E-2,-3.825317E-2,1.9305425E-2,1.0656734E-1,1.5841517E-1,9.6811526E-2,7.862173E-3,-4.421584E-2,8.151314E-2,1.4412627E-2,-4.2747673E-2,-8.562876E-2,5.843661E-2,-4.1660246E-2,7.060944E-2,-1.939866E-2,1.5376774E-2,2.1248153E-1,2.5853863E-2,-3.8477603E-2,-8.608373E-2,2.9227862E-2,-1.3145787E-2,-8.264368E-2,-5.0954815E-2,8.4266484E-2,3.2444228E-3,-9.8026484E-2,-8.637712E-2,-1.217457E-1,1.0928744E-2,-8.2529835E-2,-8.069597E-2,7.362344E-2,-2.6790917E-2,-8.554851E-2,-1.3043255E-2,5.8796443E-2,-4.98023E-2,6.036053E-2,-7.093427E-3,-1.0990608E-1,3.0987753E-2,-8.840283E-2],"split_indices":[3,5,1,0,1,5,3,4,4,2,0,0,3,1,0,2,0,1,7,1,1,1,6,7,7,1,0,2,2,1,0,6,1,0,1,0,0,1,2,1,1,7,2,0,0,2,1,2,0,0,6,6,1,7,1,0,2,1,1,0,0,0,0,0,0,0,0,0,0,0,0,0,0,0,0,0,0,0,0,0,0,0,0,0,0,0,0,0,0,0,0,0,0,0,0,0,0,0,0,0,0,0,0,0,0,0,0,0,0],"split_type":[0,0,0,0,0,0,0,0,0,0,0,0,0,0,0,0,0,0,0,0,0,0,0,0,0,0,0,0,0,0,0,0,0,0,0,0,0,0,0,0,0,0,0,0,0,0,0,0,0,0,0,0,0,0,0,0,0,0,0,0,0,0,0,0,0,0,0,0,0,0,0,0,0,0,0,0,0,0,0,0,0,0,0,0,0,0,0,0,0,0,0,0,0,0,0,0,0,0,0,0,0,0,0,0,0,0,0,0,0],"sum_hessian":[1.0964349E3,6.278894E2,4.6854556E2,4.3374454E2,1.9414484E2,3.5261353E2,1.1593203E2,2.1179121E2,2.2195334E2,1.3215228E2,6.1992554E1,7.4264946E1,2.783486E2,6.1596336E1,5.4335697E1,7.982081E1,1.3197041E2,5.5390953E1,1.6656238E2,2.7276506E1,1.0487578E2,3.271183E1,2.9280725E1,3.90862E1,3.517874E1,1.0772795E2,1.7062065E2,1.846896E1,4.3127377E1,3.4898357E1,1.9437336E1,3.448015E1,4.5340656E1,5.622634E1,7.5744064E1,4.9217163E1,6.17379E0,5.937531E1,1.0718707E2,4.0341344E0,2.3242373E1,5.612011E1,4.8755672E1,1.9732328E1,1.2979502E1,2.0876493E1,8.404232E0,2.9296207E1,9.789994E0,2.540503E1,9.773714E0,8.633741E1,2.1390535E1,3.5235822E0,1.4945378E1,2.4784224E1,1.8343151E1,1.6913347E1,1.7985012E1,3.1096733E1,3.3834178E0,3.34783E1,1.1862357E1,4.9718056E0,7.077226E1,1.7874104E1,3.1343061E1,4.6046246E1,1.3329063E1,2.8908854E1,7.827822E1,1.3447115E0,2.689423E0,1.41949835E1,9.047389E0,8.054722E0,4.8065388E1,1.0795037E1,3.7960632E1,1.1156313E1,8.5760145E0,1.201401E0,1.1778101E1,1.1473991E1,9.402502E0,7.391147E0,1.013085E0,5.8127356E0,2.3483473E1,7.8888745E0,1.9011195E0,4.280829E0,5.4928846E0,1.4731283E1,7.160613E1,1.9601322E0,1.9430403E1,1.5144075E0,2.0091746E0,4.9169455E0,1.0028433E1,1.6436066E1,8.348159E0,1.7138338E1,1.2048123E0,3.2099428E0,1.3703404E1,7.002575E0,1.0982437E1],"tree_param":{"num_deleted":"0","num_feature":"8","num_nodes":"109","size_leaf_vector":"1"}},{"base_weights":[-5.90198E-3,6.320325E-1,-9.266677E-1,9.341533E-1,-7.503806E-2,-1.0668142E0,-5.0789934E-1,1.4302796E0,5.813749E-1,-2.9594702E-1,3.7883276E-1,-7.652644E-1,-1.1458629E0,-2.2459167E-1,-8.288865E-1,8.693675E-1,1.7663796E0,-2.023525E-1,8.4282017E-1,3.8853058E-1,-4.8416033E-1,8.868932E-1,-2.2545737E-1,-5.3941673E-1,-9.990559E-1,-1.0443486E0,-1.2036946E-1,-4.679888E-1,-6.1274394E-2,-6.7360187E-1,-1.1961057E-1,1.1892885E0,5.100461E-1,1.7822632E0,9.6730525E-3,3.885635E-1,-3.4726146E-1,4.3712166E-1,1.0448936E0,-2.689715E-1,5.049032E-1,-7.5665325E-1,-1.7077707E-1,2.9000366E-1,1.6686497E0,-3.2833762E-2,-6.6180474E-1,-6.5428054E-1,-1.7357318E-1,-1.1529537E-1,-5.4050344E-1,-1.1236196E0,-6.943377E-1,2.3916466E-2,-5.7269067E-1,1.1710811E-1,-3.7930524E-1,-8.8844687E-1,-3.6208513E-1,1.24268286E-1,3.4013014E-2,-1.5975138E-2,6.0268696E-2,1.634654E-1,2.049843E-1,-4.0220026E-2,5.942629E-2,1.6702041E-2,-4.724268E-2,5.9375502E-2,-3.5115894E-2,1.3618754E-1,8.36808E-2,7.394401E-3,-4.1677874E-2,7.137721E-2,1.3036187E-2,-3.9717015E-2,-8.085525E-2,9.703848E-3,-8.194586E-2,1.2890676E-1,1.1078139E-2,1.448069E-2,1.7926833E-1,2.3211895E-2,-3.558686E-2,-8.1454486E-2,2.7572406E-2,-1.2091935E-2,-7.802544E-2,-4.7569033E-2,7.659485E-2,-8.679757E-2,1.475883E-2,-8.183119E-2,-1.1747777E-1,1.0169105E-2,-7.794621E-2,-5.5097707E-2,5.4664362E-2,-3.8943168E-2,-7.937338E-2,-3.9499473E-2,3.6141913E-2,-7.510709E-2,4.665969E-3,-2.4336258E-2,-1.0094912E-1,1.4634028E-2,-6.3107654E-2],"categories":[],"categories_nodes":[],"categories_segments":[],"categories_sizes":[],"default_left":[0,0,0,0,0,0,0,0,0,0,0,0,0,0,0,0,0,0,0,0,0,0,0,0,0,0,0,0,0,0,0,0,0,0,0,0,0,0,0,0,0,0,0,0,0,0,0,0,0,0,0,0,0,0,0,0,0,0,0,0,0,0,0,0,0,0,0,0,0,0,0,0,0,0,0,0,0,0,0,0,0,0,0,0,0,0,0,0,0,0,0,0,0,0,0,0,0,0,0,0,0,0,0,0,0,0,0,0,0,0,0],"id":2,"left_children":[1,3,5,7,9,11,13,15,17,19,21,23,25,27,29,31,33,35,37,39,41,43,45,47,49,51,-1,53,55,57,-1,59,61,63,-1,65,67,69,71,73,75,77,79,81,83,85,87,89,91,-1,93,95,97,99,101,103,105,107,109,-1,-1,-1,-1,-1,-1,-1,-1,-1,-1,-1,-1,-1,-1,-1,-1,-1,-1,-1,-1,-1,-1,-1,-1,-1,-1,-1,-1,-1,-1,-1,-1,-1,-1,-1,-1,-1,-1,-1,-1,-1,-1,-1,-1,-1,-1,-1,-1,-1,-1,-1,-1],"loss_changes":[6.406137E2,1.3769742E2,2.5654358E1,7.818475E1,1.9543034E1,7.073395E0,1.0165461E1,3.370468E1,5.4578903E1,1.7053406E1,1.9813305E1,3.2777061E0,2.824707E-1,2.429374E0,2.2162743E0,7.6712E0,2.9017944E0,5.8916435E0,1.5882492E1,2.3385954E0,8.677078E0,1.5804888E1,2.4977713E0,1.5227556E0,1.8004265E0,2.0701447E0,0E0,1.2847939E0,2.2090755E0,2.3242722E0,0E0,1.2704353E0,2.3094425E0,1.1823425E0,0E0,2.469321E0,3.5881763E0,8.602642E0,7.58815E0,2.8331324E-1,1.8476262E0,7.025604E-1,8.636454E0,3.6181912E0,2.557209E0,1.9525462E0,1.5317008E0,1.8725519E0,3.3917272E0,0E0,2.4968562E0,3.2165527E-1,1.5420637E0,1.8912346E0,5.168047E-1,3.2967494E0,2.2437E0,1.5275974E0,2.530098E0,0E0,0E0,0E0,0E0,0E0,0E0,0E0,0E0,0E0,0E0,0E0,0E0,0E0,0E0,0E0,0E0,0E0,0E0,0E0,0E0,0E0,0E0,0E0,0E0,0E0,0E0,0E0,0E0,0E0,0E0,0E0,0E0,0E0,0E0,0E0,0E0,0E0,0E0,0E0,0E0,0E0,0E0,0E0,0E0,0E0,0E0,0E0,0E0,0E0,0E0,0E0,0E0],"parents":[2147483647,0,0,1,1,2,2,3,3,4,4,5,5,6,6,7,7,8,8,9,9,10,10,11,11,12,12,13,13,14,14,15,15,16,16,17,17,18,18,19,19,20,20,21,21,22,22,23,23,24,24,25,25,27,27,28,28,29,29,31,31,32,32,33,33,35,35,36,36,37,37,38,38,39,39,40,40,41,41,42,42,43,43,44,44,45,45,46,46,47,47,48,48,50,50,51,51,52,52,53,53,54,54,55,55,56,56,57,57,58,58],"right_children":[2,4,6,8,10,12,14,16,18,20,22,24,26,28,30,32,34,36,38,40,42,44,46,48,50,52,-1,54,56,58,-1,60,62,64,-1,66,68,70,72,74,76,78,80,82,84,86,88,90,92,-1,94,96,98,100,102,104,106,108,110,-1,-1,-1,-1,-1,-1,-1,-1,-1,-1,-1,-1,-1,-1,-1,-1,-1,-1,-1,-1,-1,-1,-1,-1,-1,-1,-1,-1,-1,-1,-1,-1,-1,-1,-1,-1,-1,-1,-1,-1,-1,-1,-1,-1,-1,-1,-1,-1,-1,-1,-1,-1],"split_conditions":[1E0,1E0,9.355E1,8E0,7.04E1,1E0,2E0,1E0,1E0,3.19E1,3E1,5E1,2E0,1.015E2,7.8549E3,8.08E1,1.0465E2,4.9255E2,2E0,1.945E1,2.97E1,9.005E1,1E0,3E0,2E0,7.245E1,-1.2036946E-1,3.7697E3,6.9919E3,1.057E2,-1.1961057E-1,5.52E1,3.47E1,8.48E1,9.6730525E-3,2E0,4.38E1,5.2E1,1.54005E3,1.915E1,2.025E1,1E0,1.519E3,1.936E2,3E0,4.7984E3,1.1045E2,1.20835E3,4.2E1,-1.1529537E-1,6.6E1,1E0,7.44E1,2E0,1E0,1E0,1.084E2,9.63E1,1E0,1.24268286E-1,3.4013014E-2,-1.5975138E-2,6.0268696E-2,1.634654E-1,2.049843E-1,-4.0220026E-2,5.942629E-2,1.6702041E-2,-4.724268E-2,5.9375502E-2,-3.5115894E-2,1.3618754E-1,8.36808E-2,7.394401E-3,-4.1677874E-2,7.137721E-2,1.3036187E-2,-3.9717015E-2,-8.085525E-2,9.703848E-3,-8.194586E-2,1.2890676E-1,1.1078139E-2,1.448069E-2,1.7926833E-1,2.3211895E-2,-3.558686E-2,-8.1454486E-2,2.7572406E-2,-1.2091935E-2,-7.802544E-2,-4.7569033E-2,7.659485E-2,-8.679757E-2,1.475883E-2,-8.183119E-2,-1.1747777E-1,1.0169105E-2,-7.794621E-2,-5.5097707E-2,5.4664362E-2,-3.8943168E-2,-7.937338E-2,-3.9499473E-2,3.6141913E-2,-7.510709E-2,4.665969E-3,-2.4336258E-2,-1.0094912E-1,1.4634028E-2,-6.3107654E-2],"split_indices":[3,5,1,0,1,5,3,4,4,2,0,0,3,1,2,2,1,2,7,1,1,1,6,7,7,1,0,2,2,1,0,1,1,1,0,7,1,0,2,1,1,7,2,2,0,2,1,2,0,0,0,6,1,7,5,7,1,1,7,0,0,0,0,0,0,0,0,0,0,0,0,0,0,0,0,0,0,0,0,0,0,0,0,0,0,0,0,0,0,0,0,0,0,0,0,0,0,0,0,0,0,0,0,0,0,0,0,0,0,0,0],"split_type":[0,0,0,0,0,0,0,0,0,0,0,0,0,0,0,0,0,0,0,0,0,0,0,0,0,0,0,0,0,0,0,0,0,0,0,0,0,0,0,0,0,0,0,0,0,0,0,0,0,0,0,0,0,0,0,0,0,0,0,0,0,0,0,0,0,0,0,0,0,0,0,0,0,0,0,0,0,0,0,0,0,0,0,0,0,0,0,0,0,0,0,0,0,0,0,0,0,0,0,0,0,0,0,0,0,0,0,0,0,0,0],"sum_hessian":[1.0886168E3,6.432602E2,4.4535663E2,4.5046286E2,1.927973E2,3.3252512E2,1.1283148E2,1.859291E2,2.6453378E2,1.2991348E2,6.288382E1,7.128255E1,2.6124258E2,6.0836254E1,5.199523E1,7.100932E1,1.1491977E2,6.622849E1,1.983053E2,2.7788912E1,1.0212458E2,3.3907894E1,2.8975924E1,3.7939457E1,3.3343086E1,1.01730034E2,1.5951256E2,2.367986E1,3.7156395E1,3.8534588E1,1.3460643E1,3.6342255E1,3.466707E1,1.13770004E2,1.149762E0,1.271151E1,5.351698E1,6.69847E1,1.3132059E2,3.981612E0,2.3807299E1,5.3869507E1,4.825507E1,2.0004755E1,1.3903139E1,2.084794E1,8.127983E0,2.8273895E1,9.665563E0,2.3830755E1,9.512329E0,8.1142525E1,2.058751E1,4.291117E0,1.9388742E1,2.4209265E1,1.2947129E1,2.170986E1,1.682473E1,3.3756264E1,2.5859928E0,4.1242356E0,3.0542833E1,7.790377E1,3.5866238E1,2.4268322E0,1.0284678E1,1.0409953E1,4.310703E1,5.6086872E1,1.0897829E1,4.9845284E1,8.147531E1,1.349793E0,2.631819E0,1.4702496E1,9.104804E0,7.88769E0,4.598182E1,3.4756046E1,1.3499023E1,2.1008928E0,1.7903862E1,1.2096143E0,1.2693525E1,1.1608285E1,9.2396555E0,7.1021037E0,1.0258801E0,5.776523E0,2.2497372E1,7.6872897E0,1.9782733E0,6.2679176E0,3.2444117E0,1.4084291E1,6.705823E1,1.9700661E0,1.8617443E1,2.01785E0,2.2732675E0,1.2110306E1,7.2784357E0,7.6200433E0,1.6589222E1,6.5058517E0,6.4412775E0,3.905691E0,1.7804169E1,5.979235E0,1.0845495E1],"tree_param":{"num_deleted":"0","num_feature":"8","num_nodes":"111","size_leaf_vector":"1"}},{"base_weights":[-7.7333613E-3,5.594481E-1,-8.8362294E-1,8.172055E-1,-8.741429E-2,-1.0252692E0,-4.7473425E-1,1.1862603E0,4.588593E-1,-3.1794164E-1,4.2564803E-1,-7.230141E-1,-1.1064899E0,-2.0801623E-1,-7.86905E-1,6.9595784E-1,1.469326E0,-2.0365493E-1,6.739867E-1,-1.0803501E-1,-9.1234934E-1,1.0528073E0,5.3419717E-2,-5.0232375E-1,-9.573282E-1,-1.0022082E0,-1.1666117E-1,-1.4205347E-1,-7.787334E-1,-6.3364893E-1,-1.16047285E-1,9.1096354E-1,1.4171092E-2,1.8605218E0,1.2748665E0,-1.1674962E-1,-9.328811E-2,4.7693825E-1,1.1303436E0,3.3431372E-1,-2.704717E-1,-2.2103842E-1,-9.969355E-2,1.1863819E0,2.832059E-1,2.8889602E-1,-5.490479E-1,-6.136228E-1,-1.559482E-1,-1.1145344E-1,-5.0682974E-1,-1.0835998E0,-6.526457E-1,-4.4514728E-1,-4.1518793E-3,-1.0481121E-1,2.9150182E-2,-8.460102E-1,-3.3486715E-1,9.460967E-2,-2.0001603E-2,5.5459853E-2,-5.862024E-2,8.08903E-2,1.9008689E-1,9.306639E-2,1.6062836E-1,7.831672E-3,-3.4658603E-2,6.730812E-2,-6.523444E-3,1.2177396E-1,-4.3474276E-2,-3.4475808E-3,5.96262E-2,-5.9162196E-2,1.0958641E-2,-6.472488E-2,5.1303327E-2,3.770407E-2,1.3860051E-1,-3.6925796E-2,8.885202E-2,-1.5081987E-2,7.10124E-2,-9.339028E-2,-1.7132219E-2,2.4180276E-2,-6.784298E-2,-6.9686495E-2,3.543441E-2,6.6503645E-3,-9.145712E-2,-7.754482E-2,-1.1366105E-1,9.463675E-3,-7.361722E-2,-2.082785E-2,-8.084201E-2,9.7923264E-2,-6.3367025E-3,-2.2632422E-2,-9.674962E-2,1.3292602E-2,-5.9139192E-2],"categories":[],"categories_nodes":[],"categories_segments":[],"categories_sizes":[],"default_left":[0,0,0,0,0,0,0,0,0,0,0,0,0,0,0,0,0,0,0,0,0,0,0,0,0,0,0,0,0,0,0,0,0,0,0,0,0,0,0,0,0,0,0,0,0,0,0,0,0,0,0,0,0,0,0,0,0,0,0,0,0,0,0,0,0,0,0,0,0,0,0,0,0,0,0,0,0,0,0,0,0,0,0,0,0,0,0,0,0,0,0,0,0,0,0,0,0,0,0,0,0,0,0,0,0],"id":3,"left_children":[1,3,5,7,9,11,13,15,17,19,21,23,25,27,29,31,33,35,37,39,41,43,45,47,49,51,-1,53,55,57,-1,59,61,63,65,67,-1,69,71,73,75,77,-1,79,81,83,85,87,89,-1,91,93,95,97,99,-1,-1,101,103,-1,-1,-1,-1,-1,-1,-1,-1,-1,-1,-1,-1,-1,-1,-1,-1,-1,-1,-1,-1,-1,-1,-1,-1,-1,-1,-1,-1,-1,-1,-1,-1,-1,-1,-1,-1,-1,-1,-1,-1,-1,-1,-1,-1,-1,-1],"loss_changes":[5.359128E2,1.09243805E2,2.406961E1,6.1388214E1,2.2308367E1,6.9094543E0,9.074131E0,3.0908691E1,3.4233307E1,1.611198E1,1.3611364E1,3.1078033E0,3.7088013E-1,2.1929336E0,2.1707382E0,1.260984E1,8.65564E0,3.6559622E0,1.57211E1,7.071061E0,1.7544975E0,1.9001751E0,5.520374E0,1.3631878E0,1.7408199E0,2.0504608E0,0E0,2.341857E0,2.068878E0,2.140232E0,0E0,2.7438736E0,7.3531127E0,4.1229248E-1,9.913254E0,2.4582176E0,0E0,1.365803E1,7.888382E0,2.584471E0,8.805277E0,1.8859764E0,0E0,2.421442E0,2.117465E0,5.261548E0,1.4340656E0,1.7328835E0,3.1571922E0,0E0,2.4583943E0,3.7817383E-1,1.3692179E0,1.3396168E0,2.365001E0,0E0,0E0,1.4125605E0,2.1815295E0,0E0,0E0,0E0,0E0,0E0,0E0,0E0,0E0,0E0,0E0,0E0,0E0,0E0,0E0,0E0,0E0,0E0,0E0,0E0,0E0,0E0,0E0,0E0,0E0,0E0,0E0,0E0,0E0,0E0,0E0,0E0,0E0,0E0,0E0,0E0,0E0,0E0,0E0,0E0,0E0,0E0,0E0,0E0,0E0,0E0,0E0],"parents":[2147483647,0,0,1,1,2,2,3,3,4,4,5,5,6,6,7,7,8,8,9,9,10,10,11,11,12,12,13,13,14,14,15,15,16,16,17,17,18,18,19,19,20,20,21,21,22,22,23,23,24,24,25,25,27,27,28,28,29,29,31,31,32,32,33,33,34,34,35,35,37,37,38,38,39,39,40,40,41,41,43,43,44,44,45,45,46,46,47,47,48,48,50,50,51,51,52,52,53,53,54,54,57,57,58,58],"right_children":[2,4,6,8,10,12,14,16,18,20,22,24,26,28,30,32,34,36,38,40,42,44,46,48,50,52,-1,54,56,58,-1,60,62,64,66,68,-1,70,72,74,76,78,-1,80,82,84,86,88,90,-1,92,94,96,98,100,-1,-1,102,104,-1,-1,-1,-1,-1,-1,-1,-1,-1,-1,-1,-1,-1,-1,-1,-1,-1,-1,-1,-1,-1,-1,-1,-1,-1,-1,-1,-1,-1,-1,-1,-1,-1,-1,-1,-1,-1,-1,-1,-1,-1,-1,-1,-1,-1,-1],"split_conditions":[1E0,1E0,9.355E1,1.1E1,7.92E1,1E0,2E0,1E0,1E0,1.8E1,1.65475E3,5E1,2E0,7.1E1,7.8549E3,2.2565E2,2E0,6.56E1,9.565E1,2.095E1,1.97E1,1E2,4.8E1,3E0,2E0,7.245E1,-1.1666117E-1,1E2,7.8549E3,1.057E2,-1.16047285E-1,6E0,5.115E1,2E0,8.09E1,1.2583E3,-9.328811E-2,3.26805E3,1.079E2,1.99E1,2.54E1,3E1,-9.969355E-2,8.38E1,1.0315E2,9.86E1,9.95E1,1.3E1,3E1,-1.1145344E-1,1E0,1E0,7.44E1,9.68E1,1.002E2,-1.0481121E-1,2.9150182E-2,9.63E1,1E0,9.460967E-2,-2.0001603E-2,5.5459853E-2,-5.862024E-2,8.08903E-2,1.9008689E-1,9.306639E-2,1.6062836E-1,7.831672E-3,-3.4658603E-2,6.730812E-2,-6.523444E-3,1.2177396E-1,-4.3474276E-2,-3.4475808E-3,5.96262E-2,-5.9162196E-2,1.0958641E-2,-6.472488E-2,5.1303327E-2,3.770407E-2,1.3860051E-1,-3.6925796E-2,8.885202E-2,-1.5081987E-2,7.10124E-2,-9.339028E-2,-1.7132219E-2,2.4180276E-2,-6.784298E-2,-6.9686495E-2,3.543441E-2,6.6503645E-3,-9.145712E-2,-7.754482E-2,-1.1366105E-1,9.463675E-3,-7.361722E-2,-2.082785E-2,-8.084201E-2,9.7923264E-2,-6.3367025E-3,-2.2632422E-2,-9.674962E-2,1.3292602E-2,-5.9139192E-2],"split_indices":[3,6,1,0,1,5,3,4,4,0,2,0,3,0,2,2,0,1,1,2,1,1,0,7,7,1,0,1,2,1,0,0,1,7,1,2,0,2,1,1,1,0,0,1,1,1,1,0,0,0,6,6,1,1,1,0,0,1,7,0,0,0,0,0,0,0,0,0,0,0,0,0,0,0,0,0,0,0,0,0,0,0,0,0,0,0,0,0,0,0,0,0,0,0,0,0,0,0,0,0,0,0,0,0,0],"split_type":[0,0,0,0,0,0,0,0,0,0,0,0,0,0,0,0,0,0,0,0,0,0,0,0,0,0,0,0,0,0,0,0,0,0,0,0,0,0,0,0,0,0,0,0,0,0,0,0,0,0,0,0,0,0,0,0,0,0,0,0,0,0,0,0,0,0,0,0,0,0,0,0,0,0,0,0,0,0,0,0,0,0,0,0,0,0,0,0,0,0,0,0,0,0,0,0,0,0,0,0,0,0,0,0,0],"sum_hessian":[1.0767595E3,6.537716E2,4.2298795E2,4.6730127E2,1.8647037E2,3.130385E2,1.0994943E2,2.2907271E2,2.3822856E2,1.2892331E2,5.7547054E1,6.839925E1,2.4463927E2,6.0189777E1,4.9759655E1,8.511037E1,1.4396234E2,5.840762E1,1.7982094E2,9.615078E1,3.2772526E1,2.0752773E1,3.679428E1,3.6842598E1,3.1556646E1,9.592553E1,1.4871373E2,5.507337E1,5.116407E0,3.719615E1,1.25635E1,6.444963E1,2.0660736E1,4.4956112E1,9.9006226E1,5.3224686E1,5.1829357E0,1.27020424E2,5.2800514E1,2.5540524E1,7.061026E1,3.9666684E0,2.8805857E1,1.7222095E1,3.5306783E0,2.6828686E1,9.965595E0,2.7299149E1,9.5434475E0,2.2300611E1,9.256035E0,7.610539E1,1.982014E1,1.6525026E1,3.8548347E1,4.1040792E0,1.0123276E0,2.0671911E1,1.6524242E1,6.2617847E1,1.8317856E0,1.0913327E1,9.74741E0,2.4388077E0,4.2517303E1,5.0434357E1,4.8571873E1,2.9146645E1,2.407804E1,9.309853E1,3.3921894E1,5.021821E1,2.5823047E0,1.096774E1,1.4572783E1,3.7969364E1,3.2640892E1,2.5844078E0,1.3822604E0,3.9789236E0,1.3243171E1,1.8868402E0,1.6438382E0,1.3440367E1,1.3388319E1,4.2068796E0,5.758716E0,1.7301953E0,2.5568954E1,4.455227E0,5.08822E0,4.194692E0,5.0613427E0,1.3464474E1,6.2640915E1,1.979271E0,1.784087E1,1.0955155E1,5.5698705E0,1.3069527E0,3.7241394E1,3.857616E0,1.6814297E1,6.022875E0,1.0501367E1],"tree_param":{"num_deleted":"0","num_feature":"8","num_nodes":"105","size_leaf_vector":"1"}},{"base_weights":[-9.195041E-3,4.980839E-1,-8.4301245E-1,7.300983E-1,-7.5074725E-2,-9.8673546E-1,-4.4281077E-1,1.043921E0,4.1059983E-1,-1.9362386E-1,4.8590857E-1,-6.8343014E-1,-1.0704789E0,-2.7753153E-1,-9.209275E-1,5.84141E-1,1.2871234E0,1.2048454E-2,7.180266E-1,2.0269673E-1,-3.77226E-1,1.355537E0,-2.2950172E-1,-5.2100074E-1,-1.0052869E0,-9.62869E-1,-1.1333587E-1,-1.2921603E-1,-5.7136106E-1,-5.3338546E-1,-1.07608676E-1,7.140923E-1,-6.424125E-1,1.5469022E0,1.1609486E0,-2.2335406E-1,2.5993204E-1,8.077802E-1,7.382897E-2,-5.8674584E-3,5.095642E-1,-9.43074E-2,-6.1005723E-1,1.4721167E0,-8.444667E-4,-3.254809E-1,7.4321575E-2,-6.2601244E-1,-6.789097E-2,-4.2042658E-1,-1.11593105E-1,-1.0467542E0,-6.1320597E-1,-3.5090005E-1,3.927634E-2,-8.125336E-1,-2.9019883E-1,-1.7649513E-1,-6.5977496E-1,8.049802E-2,-4.8247697E-3,5.832761E-2,-1.1462044E-1,1.6079856E-1,2.6092932E-3,7.173153E-2,1.3456836E-1,-1.1644397E-2,-1.0551415E-1,4.4735223E-2,-2.326144E-2,-6.336156E-2,8.486306E-2,-4.93611E-2,6.339653E-2,2.7601367E-2,-6.519402E-2,1.1398508E-1,3.9904132E-2,7.0183846E-4,-1.04776524E-1,-4.308228E-2,-8.5313015E-2,1.5395828E-1,4.133528E-2,-1.3709741E-2,-7.359641E-2,-7.904846E-3,-7.200459E-2,-8.095567E-2,1.8796217E-2,-7.047148E-2,3.5494182E-2,-7.347816E-2,-1.10200725E-1,8.80838E-3,-6.950706E-2,-1.543126E-2,-6.387382E-2,5.678907E-2,-8.721488E-3,-9.152289E-2,-1.3500088E-3,3.825881E-2,-6.99228E-2,-4.6100486E-2,2.847454E-2,-1.6729599E-2,-8.163764E-2],"categories":[],"categories_nodes":[],"categories_segments":[],"categories_sizes":[],"default_left":[0,0,0,0,0,0,0,0,0,0,0,0,0,0,0,0,0,0,0,0,0,0,0,0,0,0,0,0,0,0,0,0,0,0,0,0,0,0,0,0,0,0,0,0,0,0,0,0,0,0,0,0,0,0,0,0,0,0,0,0,0,0,0,0,0,0,0,0,0,0,0,0,0,0,0,0,0,0,0,0,0,0,0,0,0,0,0,0,0,0,0,0,0,0,0,0,0,0,0,0,0,0,0,0,0,0,0,0,0],"id":4,"left_children":[1,3,5,7,9,11,13,15,17,19,21,23,25,27,29,31,33,35,37,39,41,43,45,47,49,51,-1,53,55,57,-1,59,61,63,65,67,69,71,73,75,77,79,81,83,-1,85,-1,87,89,91,-1,93,95,97,99,101,103,105,107,-1,-1,-1,-1,-1,-1,-1,-1,-1,-1,-1,-1,-1,-1,-1,-1,-1,-1,-1,-1,-1,-1,-1,-1,-1,-1,-1,-1,-1,-1,-1,-1,-1,-1,-1,-1,-1,-1,-1,-1,-1,-1,-1,-1,-1,-1,-1,-1,-1,-1],"loss_changes":[4.501544E2,8.8048584E1,2.2717377E1,4.6808884E1,1.2834882E1,6.7707825E0,8.293316E0,2.5752075E1,2.879686E1,1.1636827E1,2.1281765E1,2.9618874E0,4.6298218E-1,3.4919963E0,1.0711632E0,1.3820795E1,3.2581482E0,6.09132E0,7.613228E0,3.263802E0,7.1174736E0,2.454647E0,2.0483027E0,2.164691E0,9.0831566E-1,2.038002E0,0E0,2.093113E0,1.6055508E0,3.2582402E-1,0E0,5.3236694E0,5.9526453E0,4.3613358E0,7.868805E0,4.6408987E0,4.795768E0,7.390114E0,5.820795E0,5.8840985E0,9.8207664E-1,4.8721714E0,2.2276402E0,3.7470818E-1,0E0,1.3147017E0,0E0,1.8737583E0,2.0211833E0,1.3502581E0,0E0,4.360733E-1,1.2147346E0,1.2674239E0,2.2245235E0,1.1414824E0,4.145932E0,6.4691687E-1,3.9367986E-1,0E0,0E0,0E0,0E0,0E0,0E0,0E0,0E0,0E0,0E0,0E0,0E0,0E0,0E0,0E0,0E0,0E0,0E0,0E0,0E0,0E0,0E0,0E0,0E0,0E0,0E0,0E0,0E0,0E0,0E0,0E0,0E0,0E0,0E0,0E0,0E0,0E0,0E0,0E0,0E0,0E0,0E0,0E0,0E0,0E0,0E0,0E0,0E0,0E0,0E0],"parents":[2147483647,0,0,1,1,2,2,3,3,4,4,5,5,6,6,7,7,8,8,9,9,10,10,11,11,12,12,13,13,14,14,15,15,16,16,17,17,18,18,19,19,20,20,21,21,22,22,23,23,24,24,25,25,27,27,28,28,29,29,31,31,32,32,33,33,34,34,35,35,36,36,37,37,38,38,39,39,40,40,41,41,42,42,43,43,45,45,47,47,48,48,49,49,51,51,52,52,53,53,54,54,55,55,56,56,57,57,58,58],"right_children":[2,4,6,8,10,12,14,16,18,20,22,24,26,28,30,32,34,36,38,40,42,44,46,48,50,52,-1,54,56,58,-1,60,62,64,66,68,70,72,74,76,78,80,82,84,-1,86,-1,88,90,92,-1,94,96,98,100,102,104,106,108,-1,-1,-1,-1,-1,-1,-1,-1,-1,-1,-1,-1,-1,-1,-1,-1,-1,-1,-1,-1,-1,-1,-1,-1,-1,-1,-1,-1,-1,-1,-1,-1,-1,-1,-1,-1,-1,-1,-1,-1,-1,-1,-1,-1,-1,-1,-1,-1,-1,-1],"split_conditions":[1E0,1E0,9.355E1,1.1E1,9.125E1,1E0,7.1E1,6.615E1,8.27E1,4E0,2.89795E3,2E0,2E0,2E0,1E0,5.66E1,2E0,1E0,5.6E1,2.05E1,1E0,1.0465E2,1.1315E2,3E0,5.45E1,7.245E1,-1.1333587E-1,1.0245E2,1.0605E2,1.044E2,-1.07608676E-1,3.3575E2,1.6085E2,1E0,7.58E1,6.525E1,2.54125E3,1.02595E3,9.92E1,2.04E1,2.06E1,5.3E1,1.8E1,3E0,-8.444667E-4,1E0,7.4321575E-2,1.20835E3,8.6485E2,5.18E1,-1.11593105E-1,1E0,7.44E1,1E0,1.0415E2,7E1,1.099E2,1.0125E2,7.2E1,8.049802E-2,-4.8247697E-3,5.832761E-2,-1.1462044E-1,1.6079856E-1,2.6092932E-3,7.173153E-2,1.3456836E-1,-1.1644397E-2,-1.0551415E-1,4.4735223E-2,-2.326144E-2,-6.336156E-2,8.486306E-2,-4.93611E-2,6.339653E-2,2.7601367E-2,-6.519402E-2,1.1398508E-1,3.9904132E-2,7.0183846E-4,-1.04776524E-1,-4.308228E-2,-8.5313015E-2,1.5395828E-1,4.133528E-2,-1.3709741E-2,-7.359641E-2,-7.904846E-3,-7.200459E-2,-8.095567E-2,1.8796217E-2,-7.047148E-2,3.5494182E-2,-7.347816E-2,-1.10200725E-1,8.80838E-3,-6.950706E-2,-1.543126E-2,-6.387382E-2,5.678907E-2,-8.721488E-3,-9.152289E-2,-1.3500088E-3,3.825881E-2,-6.99228E-2,-4.6100486E-2,2.847454E-2,-1.6729599E-2,-8.163764E-2],"split_indices":[3,5,1,0,1,5,0,1,1,0,2,3,3,3,5,1,0,4,0,1,6,1,1,7,1,1,0,1,1,1,0,2,2,6,1,1,2,2,1,2,1,0,0,7,0,6,0,2,2,1,0,6,1,5,1,0,1,1,0,0,0,0,0,0,0,0,0,0,0,0,0,0,0,0,0,0,0,0,0,0,0,0,0,0,0,0,0,0,0,0,0,0,0,0,0,0,0,0,0,0,0,0,0,0,0,0,0,0,0],"split_type":[0,0,0,0,0,0,0,0,0,0,0,0,0,0,0,0,0,0,0,0,0,0,0,0,0,0,0,0,0,0,0,0,0,0,0,0,0,0,0,0,0,0,0,0,0,0,0,0,0,0,0,0,0,0,0,0,0,0,0,0,0,0,0,0,0,0,0,0,0,0,0,0,0,0,0,0,0,0,0,0,0,0,0,0,0,0,0,0,0,0,0,0,0,0,0,0,0,0,0,0,0,0,0,0,0,0,0,0,0],"sum_hessian":[1.0622574E3,6.6070154E2,4.0155585E2,4.7012238E2,1.905792E2,2.9437308E2,1.07182755E2,2.3602396E2,2.3409842E2,1.5787193E2,3.2707253E1,6.5673836E1,2.2869925E2,8.08235E1,2.6359251E1,8.283129E1,1.5319266E2,1.0239353E2,1.317049E2,4.9948948E1,1.0792299E2,1.4358625E1,1.8348627E1,4.538727E1,2.0286566E1,9.036511E1,1.3833414E2,5.4668438E1,2.6155064E1,8.804893E0,1.7554358E1,7.527395E1,7.5573425E0,4.6400204E1,1.0679246E2,5.2569702E1,4.9823833E1,1.1537605E2,1.632884E1,3.0321592E1,1.9627357E1,4.935529E1,5.85677E1,1.3154987E1,1.2036377E0,1.7306376E1,1.0422506E0,3.6537766E1,8.849505E0,3.9908586E0,1.6295708E1,7.127292E1,1.9092194E1,2.3140322E1,3.1528118E1,1.3061441E1,1.3093622E1,2.929422E0,5.8754706E0,6.720561E1,8.068335E0,2.1554704E0,5.401872E0,4.4553394E1,1.8468128E0,3.283162E1,7.396084E1,4.759259E1,4.977109E0,3.6157284E1,1.366655E1,2.7798274E0,1.1259622E2,8.170535E0,8.158305E0,2.1509703E1,8.811889E0,1.5387826E0,1.8088575E1,4.551135E1,3.8439388E0,3.5306316E1,2.3261385E1,1.194002E1,1.2149683E0,1.2776729E1,4.5296474E0,5.630056E0,3.090771E1,1.7147245E0,7.1347804E0,2.9868538E0,1.0040048E0,1.2875141E1,5.8397774E1,1.987803E0,1.7104391E1,1.466235E1,8.477971E0,5.41383E0,2.6114288E1,1.1445054E1,1.6163874E0,4.9750733E0,8.118549E0,1.81214E0,1.1172819E0,1.9165647E0,3.958906E0],"tree_param":{"num_deleted":"0","num_feature":"8","num_nodes":"109","size_leaf_vector":"1"}},{"base_weights":[-1.0514435E-2,4.454249E-1,-8.044576E-1,6.4781046E-1,-8.580335E-2,-9.5041907E-1,-4.1305074E-1,9.328822E-1,3.675654E-1,-2.7723092E-1,3.1906372E-1,-6.456852E-1,-1.0371015E0,-2.5619107E-1,-8.8343126E-1,5.467267E-1,1.1566615E0,-1.7558895E-1,5.3490424E-1,-9.249838E-2,-8.377533E-1,8.362168E-1,6.3850046E-3,-4.3311977E-1,-8.8316554E-1,-9.257246E-1,-1.10315494E-1,-1.17909126E-1,-5.3712547E-1,-5.047111E-1,-1.0407877E-1,7.1220213E-1,-1.1975615E-3,1.4816787E0,9.980901E-1,-9.622272E-2,-8.7827794E-2,3.739434E-1,8.9971685E-1,2.5778714E-1,-2.3782155E-1,-1.4387469E-1,-9.2701155E-1,1.1553892E0,5.007722E-1,2.0655778E-1,-5.237221E-1,-5.9774333E-1,-1.894884E-1,-1.05239466E-1,-4.3135652E-1,-1.012391E0,-5.7578045E-1,-1.6041537E-1,6.117165E-1,-7.7397597E-1,-2.6873055E-1,-1.649132E-1,-6.276691E-1,1.124148E-1,6.0732376E-2,4.614859E-2,-5.4514337E-2,6.245754E-2,1.515628E-1,7.219028E-2,1.2646286E-1,1.3192246E-3,-5.080023E-2,4.4944067E-2,-5.5031594E-2,1.1229389E-1,4.193146E-2,-4.062597E-2,3.9010167E-2,-5.322693E-2,1.1359605E-2,-5.7847906E-2,5.3848512E-2,-1.0560051E-1,-6.901099E-2,4.2717945E-2,1.3365495E-1,-4.1050382E-2,9.7772405E-2,-1.8303226E-3,9.931482E-2,-8.821485E-2,-1.8166052E-2,2.1213023E-2,-6.856296E-2,1.2941523E-1,-3.804731E-2,-7.73736E-2,2.2812596E-2,-6.960116E-2,-1.07021905E-1,8.199483E-3,-6.558908E-2,-1.1119626E-2,-9.1590665E-2,7.3521934E-2,2.0646265E-2,-1.1605964E-2,-9.2398964E-2,3.4516685E-2,-6.61506E-2,-4.392511E-2,2.671812E-2,-1.5729163E-2,-7.818346E-2],"categories":[],"categories_nodes":[],"categories_segments":[],"categories_sizes":[],"default_left":[0,0,0,0,0,0,0,0,0,0,0,0,0,0,0,0,0,0,0,0,0,0,0,0,0,0,0,0,0,0,0,0,0,0,0,0,0,0,0,0,0,0,0,0,0,0,0,0,0,0,0,0,0,0,0,0,0,0,0,0,0,0,0,0,0,0,0,0,0,0,0,0,0,0,0,0,0,0,0,0,0,0,0,0,0,0,0,0,0,0,0,0,0,0,0,0,0,0,0,0,0,0,0,0,0,0,0,0,0,0,0],"id":5,"left_children":[1,3,5,7,9,11,13,15,17,19,21,23,25,27,29,31,33,35,37,39,41,43,45,47,49,51,-1,53,55,57,-1,59,61,63,65,67,-1,69,71,73,75,77,79,81,83,85,87,89,91,-1,93,95,97,99,101,103,105,107,109,-1,-1,-1,-1,-1,-1,-1,-1,-1,-1,-1,-1,-1,-1,-1,-1,-1,-1,-1,-1,-1,-1,-1,-1,-1,-1,-1,-1,-1,-1,-1,-1,-1,-1,-1,-1,-1,-1,-1,-1,-1,-1,-1,-1,-1,-1,-1,-1,-1,-1,-1,-1],"loss_changes":[3.7934818E2,7.162576E1,2.1446823E1,3.8176773E1,1.4390019E1,6.6650543E0,7.565441E0,1.9966125E1,2.2342918E1,1.2951337E1,9.649005E0,2.855383E0,5.5703735E-1,3.067915E0,1.0241871E0,8.1022625E0,6.2528687E0,3.172811E0,1.0666702E1,4.9359455E0,1.790638E0,1.8291607E0,4.163344E0,1.3229394E0,1.7888336E0,2.0278015E0,0E0,1.8130641E0,1.4642696E0,2.9648018E-1,0E0,2.282322E0,5.7189374E0,4.247055E-1,6.7349243E0,2.4217434E0,0E0,9.439161E0,5.6045E0,2.6677485E0,7.117546E0,1.7125523E0,1.0674858E-1,8.4839535E-1,5.934193E0,5.051581E0,1.1587067E0,1.6334133E0,4.9987254E0,0E0,2.3639235E0,4.932785E-1,1.0763588E0,1.8705866E0,1.0959029E-2,1.2194719E0,3.5711985E0,5.796818E-1,3.6095214E-1,0E0,0E0,0E0,0E0,0E0,0E0,0E0,0E0,0E0,0E0,0E0,0E0,0E0,0E0,0E0,0E0,0E0,0E0,0E0,0E0,0E0,0E0,0E0,0E0,0E0,0E0,0E0,0E0,0E0,0E0,0E0,0E0,0E0,0E0,0E0,0E0,0E0,0E0,0E0,0E0,0E0,0E0,0E0,0E0,0E0,0E0,0E0,0E0,0E0,0E0,0E0,0E0],"parents":[2147483647,0,0,1,1,2,2,3,3,4,4,5,5,6,6,7,7,8,8,9,9,10,10,11,11,12,12,13,13,14,14,15,15,16,16,17,17,18,18,19,19,20,20,21,21,22,22,23,23,24,24,25,25,27,27,28,28,29,29,31,31,32,32,33,33,34,34,35,35,37,37,38,38,39,39,40,40,41,41,42,42,43,43,44,44,45,45,46,46,47,47,48,48,50,50,51,51,52,52,53,53,54,54,55,55,56,56,57,57,58,58],"right_children":[2,4,6,8,10,12,14,16,18,20,22,24,26,28,30,32,34,36,38,40,42,44,46,48,50,52,-1,54,56,58,-1,60,62,64,66,68,-1,70,72,74,76,78,80,82,84,86,88,90,92,-1,94,96,98,100,102,104,106,108,110,-1,-1,-1,-1,-1,-1,-1,-1,-1,-1,-1,-1,-1,-1,-1,-1,-1,-1,-1,-1,-1,-1,-1,-1,-1,-1,-1,-1,-1,-1,-1,-1,-1,-1,-1,-1,-1,-1,-1,-1,-1,-1,-1,-1,-1,-1,-1,-1,-1,-1,-1,-1],"split_conditions":[1E0,1E0,9.355E1,1.1E1,7.92E1,1E0,7.1E1,1E0,1E0,1.8E1,1.65475E3,5E1,2E0,2E0,1E0,2.2565E2,2E0,6.56E1,9.565E1,2.515E1,1.97E1,7E0,4.8E1,2.30235E3,2E0,7.245E1,-1.10315494E-1,7.49175E3,1.0605E2,1.044E2,-1.0407877E-1,4.4E1,5.115E1,2E0,8.09E1,3E0,-8.7827794E-2,4.89635E3,4.74145E3,2E0,2.91E1,3E1,5.41E1,8.38E1,9.7395E2,4E1,9.95E1,3.535E1,5.55E1,-1.05239466E-1,6.6E1,1E0,7.44E1,1.1315E2,1.109E2,9.63E1,1.099E2,1.0125E2,7.2E1,1.124148E-1,6.0732376E-2,4.614859E-2,-5.4514337E-2,6.245754E-2,1.515628E-1,7.219028E-2,1.2646286E-1,1.3192246E-3,-5.080023E-2,4.4944067E-2,-5.5031594E-2,1.1229389E-1,4.193146E-2,-4.062597E-2,3.9010167E-2,-5.322693E-2,1.1359605E-2,-5.7847906E-2,5.3848512E-2,-1.0560051E-1,-6.901099E-2,4.2717945E-2,1.3365495E-1,-4.1050382E-2,9.7772405E-2,-1.8303226E-3,9.931482E-2,-8.821485E-2,-1.8166052E-2,2.1213023E-2,-6.856296E-2,1.2941523E-1,-3.804731E-2,-7.73736E-2,2.2812596E-2,-6.960116E-2,-1.07021905E-1,8.199483E-3,-6.558908E-2,-1.1119626E-2,-9.1590665E-2,7.3521934E-2,2.0646265E-2,-1.1605964E-2,-9.2398964E-2,3.4516685E-2,-6.61506E-2,-4.392511E-2,2.671812E-2,-1.5729163E-2,-7.818346E-2],"split_indices":[3,6,1,0,1,5,0,4,4,0,2,0,3,3,5,2,0,1,1,2,1,0,0,2,7,1,0,2,1,1,0,2,1,7,1,7,0,2,2,7,1,0,1,1,2,0,1,1,1,0,0,6,1,1,1,1,1,1,0,0,0,0,0,0,0,0,0,0,0,0,0,0,0,0,0,0,0,0,0,0,0,0,0,0,0,0,0,0,0,0,0,0,0,0,0,0,0,0,0,0,0,0,0,0,0,0,0,0,0,0,0],"split_type":[0,0,0,0,0,0,0,0,0,0,0,0,0,0,0,0,0,0,0,0,0,0,0,0,0,0,0,0,0,0,0,0,0,0,0,0,0,0,0,0,0,0,0,0,0,0,0,0,0,0,0,0,0,0,0,0,0,0,0,0,0,0,0,0,0,0,0,0,0,0,0,0,0,0,0,0,0,0,0,0,0,0,0,0,0,0,0,0,0,0,0,0,0,0,0,0,0,0,0,0,0,0,0,0,0,0,0,0,0,0,0],"sum_hessian":[1.0459624E3,6.646891E2,3.8127338E2,4.8115924E2,1.8352983E2,2.7667056E2,1.04602806E2,2.3737106E2,2.4378818E2,1.2482558E2,5.870426E1,6.31421E1,2.1352847E2,7.960219E1,2.5000618E1,8.8352455E1,1.4901862E2,5.7406567E1,1.863816E2,9.476026E1,3.006532E1,2.1488735E1,3.7215527E1,3.4808918E1,2.8333181E1,8.50816E1,1.2844687E2,5.4296158E1,2.530603E1,8.573546E0,1.642707E1,6.762853E1,2.0723919E1,4.6128002E1,1.0289061E2,5.2602264E1,4.8043036E0,1.3072763E2,5.5653973E1,2.7558834E1,6.720142E1,3.7243936E0,2.6340925E1,9.75889E0,1.1729845E1,2.7457644E1,9.757883E0,1.990529E1,1.4903629E1,1.9645496E1,8.687686E0,6.667582E1,1.8405777E1,5.2044323E1,2.2518373E0,1.24423275E1,1.2863703E1,2.9001403E0,5.673406E0,1.1751576E1,5.5876957E1,1.1280368E1,9.44355E0,2.4965234E0,4.363148E1,5.2351936E1,5.0538673E1,4.2324165E1,1.0278097E1,1.2133059E2,9.397046E0,3.708479E1,1.8569183E1,4.2348723E0,2.3323961E1,3.6284515E1,3.0916908E1,2.368256E0,1.3561375E0,1.4816002E1,1.1524922E1,2.6130865E0,7.145803E0,4.077875E0,7.65197E0,2.211298E1,5.3446627E0,3.993945E0,5.7639384E0,1.8102362E0,1.8095053E1,1.0409479E0,1.3862681E1,5.604687E0,3.0829983E0,1.231822E1,5.4357597E1,1.9957132E0,1.6410065E1,4.9938114E1,2.1062078E0,1.1018306E0,1.1500065E0,2.6395757E0,9.8027525E0,5.0663476E0,7.7973547E0,1.7637609E0,1.1363795E0,1.8991493E0,3.7742567E0],"tree_param":{"num_deleted":"0","num_feature":"8","num_nodes":"111","size_leaf_vector":"1"}},{"base_weights":[-1.1136058E-2,4.001613E-1,-7.6733994E-1,5.861349E-1,-7.42382E-2,-9.156227E-1,-3.8501513E-1,7.862663E-1,2.6160938E-1,-1.7336005E-1,3.7922522E-1,-6.08139E-1,-1.0057752E0,-2.3623516E-1,-8.4796613E-1,4.084201E-1,9.919185E-1,-1.0233401E-1,4.9024567E-1,1.5861578E-1,-3.3424103E-1,1.125553E0,-2.4567963E-1,-4.461916E-1,-9.4419926E-1,-8.902998E-1,-1.07537426E-1,-1.07026294E-1,-5.055791E-1,-4.7770095E-1,-1.0078651E-1,5.831136E-1,-3.4972515E-2,1.2365512E0,8.5927355E-1,-1.123415E-2,-6.4962304E-1,1.9607152E-1,6.385131E-1,-4.777004E-1,2.416988E-1,-6.16076E-1,-1.5790807E-1,1.2216111E0,-1.7955111E-3,-7.659309E-1,-5.4489933E-2,-5.4867053E-1,-2.7911741E-2,-3.7289056E-1,-1.0607268E-1,-9.7995883E-1,-5.401917E-1,-3.8223326E-1,1.34698115E-2,-7.3859996E-1,-2.4894865E-1,-2.985064E-1,-7.842542E-2,6.648031E-2,4.1301345E-4,-2.352005E-2,9.6977174E-2,1.6366693E-1,1.1541585E-1,5.465745E-3,9.440588E-2,9.176743E-3,-4.8222534E-2,-1.06555454E-1,-1.674492E-2,3.1232412E-3,9.632657E-2,9.808765E-2,5.278055E-2,-1.563453E-2,-8.184392E-2,1.4908587E-2,6.755378E-2,-1.8656086E-2,-6.947194E-2,-8.215884E-3,-1.0296637E-1,3.5615522E-2,1.3081883E-1,-3.349823E-2,-9.52672E-2,9.244042E-2,-2.1048134E-2,-6.143427E-2,1.7074553E-2,-7.654033E-2,2.1333069E-2,-6.55632E-2,3.4374848E-2,-6.589141E-2,-1.0406456E-1,3.0707559E-2,-6.052605E-2,-1.5346954E-2,-7.4784644E-2,9.25105E-2,-4.3450883E-3,-1.0816355E-2,-8.896477E-2,3.8303513E-2,-5.94134E-2,-6.156943E-2,2.6855288E-2],"categories":[],"categories_nodes":[],"categories_segments":[],"categories_sizes":[],"default_left":[0,0,0,0,0,0,0,0,0,0,0,0,0,0,0,0,0,0,0,0,0,0,0,0,0,0,0,0,0,0,0,0,0,0,0,0,0,0,0,0,0,0,0,0,0,0,0,0,0,0,0,0,0,0,0,0,0,0,0,0,0,0,0,0,0,0,0,0,0,0,0,0,0,0,0,0,0,0,0,0,0,0,0,0,0,0,0,0,0,0,0,0,0,0,0,0,0,0,0,0,0,0,0,0,0,0,0,0,0],"id":6,"left_children":[1,3,5,7,9,11,13,15,17,19,21,23,25,27,29,31,33,35,37,39,41,43,45,47,49,51,-1,53,55,57,-1,59,61,63,65,67,69,71,73,75,77,79,81,83,-1,85,87,89,91,93,-1,95,97,99,101,103,105,107,-1,-1,-1,-1,-1,-1,-1,-1,-1,-1,-1,-1,-1,-1,-1,-1,-1,-1,-1,-1,-1,-1,-1,-1,-1,-1,-1,-1,-1,-1,-1,-1,-1,-1,-1,-1,-1,-1,-1,-1,-1,-1,-1,-1,-1,-1,-1,-1,-1,-1,-1],"loss_changes":[3.205257E2,5.8935585E1,2.022931E1,3.0946014E1,8.555211E0,6.6195984E0,6.9066095E0,2.2609787E1,1.5399145E1,8.367624E0,1.6223764E1,2.9351807E0,6.5153503E-1,2.7116737E0,9.8142433E-1,8.237806E0,5.1383514E0,3.582356E0,4.823597E0,2.8378916E0,5.1299934E0,1.7532768E0,1.891045E0,1.8498726E0,8.799648E-1,2.0162125E0,0E0,1.8282506E0,1.3408041E0,2.7969575E-1,0E0,3.5994205E0,6.4501166E0,2.508545E-1,8.624985E0,3.0879939E0,1.8785596E0,4.960865E0,2.32481E0,5.600388E-1,1.756068E0,1.2261562E0,4.276778E0,6.246662E-1,0E0,9.494686E-2,2.5287435E0,1.7536154E0,1.8741891E0,1.195523E0,0E0,5.482254E-1,1.2202077E0,1.2882783E0,2.0744035E0,1.1278386E0,3.20356E0,1.5174482E0,0E0,0E0,0E0,0E0,0E0,0E0,0E0,0E0,0E0,0E0,0E0,0E0,0E0,0E0,0E0,0E0,0E0,0E0,0E0,0E0,0E0,0E0,0E0,0E0,0E0,0E0,0E0,0E0,0E0,0E0,0E0,0E0,0E0,0E0,0E0,0E0,0E0,0E0,0E0,0E0,0E0,0E0,0E0,0E0,0E0,0E0,0E0,0E0,0E0,0E0,0E0],"parents":[2147483647,0,0,1,1,2,2,3,3,4,4,5,5,6,6,7,7,8,8,9,9,10,10,11,11,12,12,13,13,14,14,15,15,16,16,17,17,18,18,19,19,20,20,21,21,22,22,23,23,24,24,25,25,27,27,28,28,29,29,31,31,32,32,33,33,34,34,35,35,36,36,37,37,38,38,39,39,40,40,41,41,42,42,43,43,45,45,46,46,47,47,48,48,49,49,51,51,52,52,53,53,54,54,55,55,56,56,57,57],"right_children":[2,4,6,8,10,12,14,16,18,20,22,24,26,28,30,32,34,36,38,40,42,44,46,48,50,52,-1,54,56,58,-1,60,62,64,66,68,70,72,74,76,78,80,82,84,-1,86,88,90,92,94,-1,96,98,100,102,104,106,108,-1,-1,-1,-1,-1,-1,-1,-1,-1,-1,-1,-1,-1,-1,-1,-1,-1,-1,-1,-1,-1,-1,-1,-1,-1,-1,-1,-1,-1,-1,-1,-1,-1,-1,-1,-1,-1,-1,-1,-1,-1,-1,-1,-1,-1,-1,-1,-1,-1,-1,-1],"split_conditions":[1E0,1E0,9.355E1,1.7E1,9.125E1,1E0,7.1E1,1E0,8.335E1,4E0,2.89795E3,2E0,2E0,2E0,1E0,3.169E2,3E0,3E0,2E0,1.945E1,3.025E1,1.0465E2,4.0542E3,3E0,5.45E1,7.245E1,-1.07537426E-1,1E2,1.0605E2,1.0955E2,-1.0078651E-1,5.52E1,1.5E1,6.99E1,7.08E1,1E0,5.035E1,1.015E2,8.92E1,1.94E1,5.475E1,1E0,5.3E1,3.6925E2,-1.7955111E-3,3.5E1,4.3E1,5.21265E3,8.6485E2,5.18E1,-1.0607268E-1,1E0,7.4E1,9.68E1,1.002E2,9.63E1,1E0,7.5815E3,-7.842542E-2,6.648031E-2,4.1301345E-4,-2.352005E-2,9.6977174E-2,1.6366693E-1,1.1541585E-1,5.465745E-3,9.440588E-2,9.176743E-3,-4.8222534E-2,-1.06555454E-1,-1.674492E-2,3.1232412E-3,9.632657E-2,9.808765E-2,5.278055E-2,-1.563453E-2,-8.184392E-2,1.4908587E-2,6.755378E-2,-1.8656086E-2,-6.947194E-2,-8.215884E-3,-1.0296637E-1,3.5615522E-2,1.3081883E-1,-3.349823E-2,-9.52672E-2,9.244042E-2,-2.1048134E-2,-6.143427E-2,1.7074553E-2,-7.654033E-2,2.1333069E-2,-6.55632E-2,3.4374848E-2,-6.589141E-2,-1.0406456E-1,3.0707559E-2,-6.052605E-2,-1.5346954E-2,-7.4784644E-2,9.25105E-2,-4.3450883E-3,-1.0816355E-2,-8.896477E-2,3.8303513E-2,-5.94134E-2,-6.156943E-2,2.6855288E-2],"split_indices":[3,5,1,0,1,5,0,4,1,0,2,3,3,3,5,2,0,7,7,1,1,1,2,7,1,1,0,1,1,1,0,1,0,2,1,6,1,1,1,2,1,7,0,2,0,0,0,2,2,1,0,6,1,1,1,1,7,2,0,0,0,0,0,0,0,0,0,0,0,0,0,0,0,0,0,0,0,0,0,0,0,0,0,0,0,0,0,0,0,0,0,0,0,0,0,0,0,0,0,0,0,0,0,0,0,0,0,0,0],"split_type":[0,0,0,0,0,0,0,0,0,0,0,0,0,0,0,0,0,0,0,0,0,0,0,0,0,0,0,0,0,0,0,0,0,0,0,0,0,0,0,0,0,0,0,0,0,0,0,0,0,0,0,0,0,0,0,0,0,0,0,0,0,0,0,0,0,0,0,0,0,0,0,0,0,0,0,0,0,0,0,0,0,0,0,0,0,0,0,0,0,0,0,0,0,0,0,0,0,0,0,0,0,0,0,0,0,0,0,0,0],"sum_hessian":[1.0285603E3,6.6651526E2,3.620451E2,4.7864267E2,1.8787256E2,2.5986346E2,1.02181625E2,2.9518344E2,1.8345924E2,1.5467918E2,3.3193375E1,6.0672585E1,1.9919089E2,7.847285E1,2.3708776E1,1.0508887E2,1.9009456E2,7.099761E1,1.1246164E2,5.0495804E1,1.0418337E2,1.476194E1,1.8431437E1,4.2513203E1,1.8159382E1,8.0094246E1,1.19096634E2,5.3976677E1,2.449617E1,8.353277E0,1.5355499E1,7.516089E1,2.9927979E1,6.3908314E1,1.2618625E2,6.174095E1,9.25666E0,3.8465508E1,7.399613E1,5.2831945E0,4.5212612E1,3.9136784E1,6.5046585E1,1.3554979E1,1.20696E0,4.145333E0,1.4286103E1,3.3896744E1,8.616459E0,3.7879455E0,1.4371437E1,6.233252E1,1.7761728E1,1.5775066E1,3.820161E1,1.1854341E1,1.264183E1,6.517341E0,1.8359363E0,6.573766E1,9.423229E0,2.5593542E1,4.334436E0,7.6916475E0,5.6216667E1,1.2185918E1,1.14000336E2,5.132237E1,1.0418585E1,4.3201385E0,4.936522E0,3.251916E1,5.946347E0,1.6160303E1,5.7835827E1,3.4697094E0,1.8134854E0,3.8366123E1,6.846489E0,6.5787616E0,3.255802E1,6.0853138E1,4.1934505E0,1.697719E0,1.1857261E1,2.0978613E0,2.0474713E0,1.2865584E0,1.2999545E1,3.1195137E1,2.7016077E0,1.5882709E0,7.028188E0,2.7773173E0,1.0106282E0,1.1794575E1,5.0537945E1,1.0015247E0,1.6760202E1,1.0576882E1,5.198184E0,1.3486862E0,3.6852924E1,2.6229348E0,9.231406E0,4.4269967E0,8.214833E0,4.124507E0,2.392834E0],"tree_param":{"num_deleted":"0","num_feature":"8","num_nodes":"109","size_leaf_vector":"1"}},{"base_weights":[-1.1675407E-2,3.6035436E-1,-7.317943E-1,5.2569443E-1,-8.549718E-2,-8.8229555E-1,-3.5879618E-1,7.6025486E-1,2.9647732E-1,-2.438603E-1,2.3689063E-1,-5.733699E-1,-9.759388E-1,-2.1768261E-1,-8.1454295E-1,4.4196272E-1,9.4849926E-1,1.5513286E-1,7.3563075E-1,-7.87856E-2,-7.754812E-1,3.887091E-1,-5.1023394E-1,-4.1560215E-1,-9.115875E-1,-8.559906E-1,-1.0495068E-1,-9.715353E-2,-4.7504634E-1,-4.5313916E-1,-9.768225E-2,4.9862808E-1,-6.449096E-1,1.246093E0,8.084721E-1,-1.5555996E-1,2.894489E-1,7.960086E-1,-4.400725E-1,-1.417916E-1,6.177512E-1,-9.012335E-2,-8.682474E-1,9.588163E-1,2.2744061E-1,-8.483185E-2,-1.938079E-1,-6.1379516E-1,-1.9580445E-1,-3.4952047E-1,-1.0318488E-1,-9.4901395E-1,-5.0519055E-1,-3.0093503E-1,5.302764E-2,-7.047418E-1,-2.296068E-1,-1.1941245E-1,-5.8043265E-1,9.3628824E-2,4.158557E-2,-9.0253405E-2,-1.2255891E-2,4.9130812E-2,1.2778966E-1,5.6681145E-2,1.04676805E-1,-8.092536E-3,-8.414895E-2,4.216056E-2,-1.0577675E-2,1.6364597E-1,7.2020344E-2,2.8737942E-2,-8.3838746E-2,2.198541E-2,-3.1536996E-2,8.5367106E-2,-3.3378713E-2,-7.129565E-2,4.006518E-2,-1.083194E-1,-6.968518E-2,1.09368406E-1,2.1067416E-2,1.0773118E-2,8.301263E-2,5.7465132E-2,-4.6519052E-2,3.5163935E-2,-8.113683E-2,-4.1801214E-2,4.8275538E-2,-6.265067E-2,3.2323964E-2,-6.23324E-2,-1.0127993E-1,2.8963545E-2,-5.6917407E-2,1.36605445E-2,-4.17066E-2,2.994051E-2,-1.7460108E-2,-8.181014E-2,7.6150605E-3,3.3137213E-2,-6.111425E-2,-3.89551E-2,2.73208E-2,-1.3068962E-2,-7.3575266E-2],"categories":[],"categories_nodes":[],"categories_segments":[],"categories_sizes":[],"default_left":[0,0,0,0,0,0,0,0,0,0,0,0,0,0,0,0,0,0,0,0,0,0,0,0,0,0,0,0,0,0,0,0,0,0,0,0,0,0,0,0,0,0,0,0,0,0,0,0,0,0,0,0,0,0,0,0,0,0,0,0,0,0,0,0,0,0,0,0,0,0,0,0,0,0,0,0,0,0,0,0,0,0,0,0,0,0,0,0,0,0,0,0,0,0,0,0,0,0,0,0,0,0,0,0,0,0,0,0,0,0,0],"id":7,"left_children":[1,3,5,7,9,11,13,15,17,19,21,23,25,27,29,31,33,35,37,39,41,43,45,47,49,51,-1,53,55,57,-1,59,61,63,65,67,69,71,73,75,77,79,81,83,85,-1,87,89,91,93,-1,95,97,99,101,103,105,107,109,-1,-1,-1,-1,-1,-1,-1,-1,-1,-1,-1,-1,-1,-1,-1,-1,-1,-1,-1,-1,-1,-1,-1,-1,-1,-1,-1,-1,-1,-1,-1,-1,-1,-1,-1,-1,-1,-1,-1,-1,-1,-1,-1,-1,-1,-1,-1,-1,-1,-1,-1,-1],"loss_changes":[2.7137598E2,4.9282234E1,1.9053238E1,2.5978424E1,9.326525E0,6.5327454E0,6.3107014E0,1.397522E1,1.5288048E1,1.0666048E1,7.039158E0,2.793541E0,7.4920654E-1,2.3856938E0,9.34824E-1,5.9355164E0,5.246887E0,7.931511E0,4.6201706E0,4.2298617E0,1.7559528E0,4.4425926E0,9.714818E-1,1.7259665E0,8.610163E-1,2.0138397E0,0E0,1.6884446E0,1.2333617E0,3.191123E-1,0E0,2.7695732E0,5.5590343E-1,4.8062134E-1,5.4481506E0,2.8853388E0,6.9544744E0,2.489132E0,1.278867E0,5.5539346E0,2.084504E0,1.6780418E0,1.77042E-1,8.660393E-1,2.8560202E0,0E0,1.6814249E0,4.446682E0,3.4530854E0,1.0779082E0,0E0,5.996132E-1,1.0880003E0,1.2427523E0,1.8644412E0,1.1511617E0,3.0806212E0,5.07727E-1,3.481009E-1,0E0,0E0,0E0,0E0,0E0,0E0,0E0,0E0,0E0,0E0,0E0,0E0,0E0,0E0,0E0,0E0,0E0,0E0,0E0,0E0,0E0,0E0,0E0,0E0,0E0,0E0,0E0,0E0,0E0,0E0,0E0,0E0,0E0,0E0,0E0,0E0,0E0,0E0,0E0,0E0,0E0,0E0,0E0,0E0,0E0,0E0,0E0,0E0,0E0,0E0,0E0,0E0],"parents":[2147483647,0,0,1,1,2,2,3,3,4,4,5,5,6,6,7,7,8,8,9,9,10,10,11,11,12,12,13,13,14,14,15,15,16,16,17,17,18,18,19,19,20,20,21,21,22,22,23,23,24,24,25,25,27,27,28,28,29,29,31,31,32,32,33,33,34,34,35,35,36,36,37,37,38,38,39,39,40,40,41,41,42,42,43,43,44,44,46,46,47,47,48,48,49,49,51,51,52,52,53,53,54,54,55,55,56,56,57,57,58,58],"right_children":[2,4,6,8,10,12,14,16,18,20,22,24,26,28,30,32,34,36,38,40,42,44,46,48,50,52,-1,54,56,58,-1,60,62,64,66,68,70,72,74,76,78,80,82,84,86,-1,88,90,92,94,-1,96,98,100,102,104,106,108,110,-1,-1,-1,-1,-1,-1,-1,-1,-1,-1,-1,-1,-1,-1,-1,-1,-1,-1,-1,-1,-1,-1,-1,-1,-1,-1,-1,-1,-1,-1,-1,-1,-1,-1,-1,-1,-1,-1,-1,-1,-1,-1,-1,-1,-1,-1,-1,-1,-1,-1,-1,-1],"split_conditions":[1E0,1E0,9.355E1,1.1E1,7.92E1,1E0,7.1E1,1E0,9.54E1,1.8E1,4.8E1,2E0,2E0,2E0,1E0,4.571E2,2E0,1E0,1.079E2,1.5E1,1.97E1,7E0,9.95E1,2E0,5.45E1,7.245E1,-1.0495068E-1,1.0245E2,1.0605E2,1.044E2,-9.768225E-2,4.4E1,1E0,2E0,8.09E1,6.56E1,3.26805E3,1.22205E3,5.1E1,2.515E1,5.885E1,1.94E1,9.556E2,1E0,4E1,-8.483185E-2,1.0315E2,1.20835E3,8.11E1,5.18E1,-1.0318488E-1,1E0,7.4E1,3.7697E3,1.0605E2,7E1,1.099E2,1.0125E2,7.2E1,9.3628824E-2,4.158557E-2,-9.0253405E-2,-1.2255891E-2,4.9130812E-2,1.2778966E-1,5.6681145E-2,1.04676805E-1,-8.092536E-3,-8.414895E-2,4.216056E-2,-1.0577675E-2,1.6364597E-1,7.2020344E-2,2.8737942E-2,-8.3838746E-2,2.198541E-2,-3.1536996E-2,8.5367106E-2,-3.3378713E-2,-7.129565E-2,4.006518E-2,-1.083194E-1,-6.968518E-2,1.09368406E-1,2.1067416E-2,1.0773118E-2,8.301263E-2,5.7465132E-2,-4.6519052E-2,3.5163935E-2,-8.113683E-2,-4.1801214E-2,4.8275538E-2,-6.265067E-2,3.2323964E-2,-6.23324E-2,-1.0127993E-1,2.8963545E-2,-5.6917407E-2,1.36605445E-2,-4.17066E-2,2.994051E-2,-1.7460108E-2,-8.181014E-2,7.6150605E-3,3.3137213E-2,-6.111425E-2,-3.89551E-2,2.73208E-2,-1.3068962E-2,-7.3575266E-2],"split_indices":[3,6,1,0,1,5,0,4,1,0,0,3,3,3,5,2,0,4,1,0,1,0,1,7,1,1,0,1,1,1,0,2,5,7,1,1,2,2,0,2,1,1,2,5,0,0,1,2,1,1,0,6,1,2,1,0,1,1,0,0,0,0,0,0,0,0,0,0,0,0,0,0,0,0,0,0,0,0,0,0,0,0,0,0,0,0,0,0,0,0,0,0,0,0,0,0,0,0,0,0,0,0,0,0,0,0,0,0,0,0,0],"split_type":[0,0,0,0,0,0,0,0,0,0,0,0,0,0,0,0,0,0,0,0,0,0,0,0,0,0,0,0,0,0,0,0,0,0,0,0,0,0,0,0,0,0,0,0,0,0,0,0,0,0,0,0,0,0,0,0,0,0,0,0,0,0,0,0,0,0,0,0,0,0,0,0,0,0,0,0,0,0,0,0,0,0,0,0,0,0,0,0,0,0,0,0,0,0,0,0,0,0,0,0,0,0,0,0,0,0,0,0,0,0,0],"sum_hessian":[1.0109691E3,6.6692175E2,3.4404733E2,4.8637488E2,1.8054688E2,2.4416402E2,9.988332E1,2.3924059E2,2.471343E2,1.2123667E2,5.9310215E1,5.8452908E1,1.857111E2,7.7396545E1,2.2486773E1,9.015323E1,1.4908736E2,1.8798373E2,5.9150562E1,9.338706E1,2.784961E1,4.9692284E1,9.6179285E0,4.137949E1,1.7073414E1,7.540433E1,1.10306786E2,5.3649025E1,2.3747524E1,8.143398E0,1.4343375E1,8.62003E1,3.952928E0,4.517656E1,1.039108E2,5.6690968E1,1.3129276E2,5.6568462E1,2.5821013E0,8.6370735E1,7.0163264E0,3.5552058E0,2.4294403E1,9.866682E0,3.9825603E1,3.8371737E0,5.780755E0,2.081654E1,2.056295E1,3.6977112E0,1.3375704E1,5.8252068E1,1.715226E1,2.2336592E1,3.1312433E1,1.1300533E1,1.244699E1,2.7836256E0,5.359772E0,1.206975E1,7.4130554E1,2.1598527E0,1.7930752E0,2.4916263E0,4.2684933E1,5.326863E1,5.064217E1,5.2136124E1,4.554847E0,9.8342094E1,3.295067E1,2.976818E0,5.3591644E1,1.0121323E0,1.5699689E0,2.792441E1,5.8446323E1,5.7047653E0,1.3115611E0,1.3672898E0,2.187916E0,8.417809E0,1.5876595E1,7.968358E0,1.8983246E0,3.4209446E1,5.616156E0,1.2170388E0,4.5637164E0,3.4038668E0,1.7412674E1,1.5779587E1,4.7833633E0,2.6680028E0,1.0297084E0,1.1304276E1,4.6947792E1,1.0151381E0,1.6137121E1,4.648055E0,1.7688536E1,1.48855295E1,1.6426903E1,9.826416E0,1.4741176E0,5.0918407E0,7.355149E0,1.6536597E0,1.1299659E0,1.8485506E0,3.511222E0],"tree_param":{"num_deleted":"0","num_feature":"8","num_nodes":"111","size_leaf_vector":"1"}},{"base_weights":[-1.1979514E-2,3.2523936E-1,-6.975216E-1,4.79636E-1,-7.5295515E-2,-8.501397E-1,-3.3420175E-1,7.304144E-1,2.9843813E-1,-1.6001044E-1,3.06143E-1,-5.401341E-1,-9.4729954E-1,-2.0060827E-1,-7.8194344E-1,4.1319862E-1,9.1835696E-1,2.8532205E-2,5.131033E-1,1.2259918E-1,-3.0190927E-1,9.677296E-1,-2.4983604E-1,-3.3100572E-1,-7.909705E-1,-8.227449E-1,-1.0251316E-1,-8.846404E-2,-4.4584316E-1,-4.2858595E-1,-9.472602E-2,4.7619504E-1,-8.085546E-2,9.318481E-1,-2.3570448E-2,-1.8420586E-1,1.5990973E-1,8.6520034E-1,3.7941048E-1,-4.6092865E-1,1.972601E-1,-5.6222063E-1,-1.4600295E-1,1.0511647E0,-2.2848404E-3,-7.4957657E-1,-6.789973E-2,-5.0209033E-1,-8.759827E-2,-9.7704485E-2,-3.4761953E-1,-9.1919774E-1,-4.718864E-1,-1.2946606E-1,5.8919966E-2,-1.3405088E-1,-6.1976707E-1,-2.551209E-1,-7.410439E-2,5.5387344E-2,-2.387237E-4,1.4431602E-1,8.873507E-2,-7.0175596E-2,-1.0560834E-2,3.3495184E-2,-3.4354057E-2,4.9027354E-2,1.1424676E-1,1.7014494E-2,5.997994E-2,-1.6090456E-2,-7.867968E-2,-1.83965E-2,2.7053213E-2,-3.878312E-2,-8.081509E-2,-7.6222955E-3,-9.907215E-2,2.6831342E-2,1.1348511E-1,-3.395855E-2,-9.2441075E-2,6.9991015E-2,-2.3280825E-2,-2.2975864E-2,-8.36629E-2,1.2487932E-1,-2.82273E-2,-7.028662E-2,2.8769476E-2,-5.8912225E-2,-9.862794E-2,-5.865484E-2,5.139172E-3,-8.2428E-3,-8.739742E-2,-6.097197E-2,3.6337677E-2,-1.26731545E-2,-7.2549485E-2,-5.7110984E-2,2.7994577E-2],"categories":[],"categories_nodes":[],"categories_segments":[],"categories_sizes":[],"default_left":[0,0,0,0,0,0,0,0,0,0,0,0,0,0,0,0,0,0,0,0,0,0,0,0,0,0,0,0,0,0,0,0,0,0,0,0,0,0,0,0,0,0,0,0,0,0,0,0,0,0,0,0,0,0,0,0,0,0,0,0,0,0,0,0,0,0,0,0,0,0,0,0,0,0,0,0,0,0,0,0,0,0,0,0,0,0,0,0,0,0,0,0,0,0,0,0,0,0,0,0,0,0,0],"id":8,"left_children":[1,3,5,7,9,11,13,15,17,19,21,23,25,27,29,31,33,35,37,39,41,43,45,47,49,51,-1,53,55,57,-1,59,-1,61,-1,63,65,67,69,71,73,75,77,79,-1,81,83,85,87,-1,89,91,93,95,-1,97,99,101,-1,-1,-1,-1,-1,-1,-1,-1,-1,-1,-1,-1,-1,-1,-1,-1,-1,-1,-1,-1,-1,-1,-1,-1,-1,-1,-1,-1,-1,-1,-1,-1,-1,-1,-1,-1,-1,-1,-1,-1,-1,-1,-1,-1,-1],"loss_changes":[2.3006686E2,4.1289726E1,1.7910095E1,2.1667221E1,6.074367E0,6.4284515E0,5.747465E0,1.1623619E1,1.6283192E1,6.1820827E0,1.2832573E1,2.7444649E0,8.444061E-1,2.088377E0,8.989544E-1,6.290083E0,2.1753159E0,3.5418313E0,7.044281E0,2.3534665E0,4.069807E0,1.3328257E0,1.7124575E0,1.3291059E0,1.7505474E0,2.0035362E0,0E0,1.5861343E0,1.220077E0,2.958398E-1,0E0,2.737074E0,0E0,1.5488663E0,0E0,1.8964897E0,7.0088396E0,3.8394527E0,5.215477E0,4.7864985E-1,1.3554245E0,1.3150101E0,3.7755256E0,6.537647E-1,0E0,4.9980164E-2,2.1024477E0,1.5525928E0,4.2083654E0,0E0,2.2430363E0,6.464348E-1,1.0852294E0,1.7510798E0,0E0,2.5594974E0,6.97793E-1,1.3903553E0,0E0,0E0,0E0,0E0,0E0,0E0,0E0,0E0,0E0,0E0,0E0,0E0,0E0,0E0,0E0,0E0,0E0,0E0,0E0,0E0,0E0,0E0,0E0,0E0,0E0,0E0,0E0,0E0,0E0,0E0,0E0,0E0,0E0,0E0,0E0,0E0,0E0,0E0,0E0,0E0,0E0,0E0,0E0,0E0,0E0],"parents":[2147483647,0,0,1,1,2,2,3,3,4,4,5,5,6,6,7,7,8,8,9,9,10,10,11,11,12,12,13,13,14,14,15,15,16,16,17,17,18,18,19,19,20,20,21,21,22,22,23,23,24,24,25,25,27,27,28,28,29,29,31,31,33,33,35,35,36,36,37,37,38,38,39,39,40,40,41,41,42,42,43,43,45,45,46,46,47,47,48,48,50,50,51,51,52,52,53,53,55,55,56,56,57,57],"right_children":[2,4,6,8,10,12,14,16,18,20,22,24,26,28,30,32,34,36,38,40,42,44,46,48,50,52,-1,54,56,58,-1,60,-1,62,-1,64,66,68,70,72,74,76,78,80,-1,82,84,86,88,-1,90,92,94,96,-1,98,100,102,-1,-1,-1,-1,-1,-1,-1,-1,-1,-1,-1,-1,-1,-1,-1,-1,-1,-1,-1,-1,-1,-1,-1,-1,-1,-1,-1,-1,-1,-1,-1,-1,-1,-1,-1,-1,-1,-1,-1,-1,-1,-1,-1,-1,-1],"split_conditions":[1E0,1E0,9.355E1,8E0,9.125E1,1E0,7.1E1,6.615E1,8.27E1,4E0,2.89795E3,5E1,2E0,2E0,1E0,3.169E2,1.0465E2,2E0,1.54005E3,1.945E1,3.025E1,1.0465E2,4.0542E3,2.30235E3,2E0,7.245E1,-1.0251316E-1,7.49175E3,1E0,1.0955E2,-9.472602E-2,1E0,-8.085546E-2,6.99E1,-2.3570448E-2,5.817E2,3E0,1.02595E3,9.565E1,1.94E1,2E0,2.04E1,5.3E1,3.6925E2,-2.2848404E-3,3.5E1,4.4E1,2.6E1,5.55E1,-9.7704485E-2,6.6E1,1E0,6.5E1,1.1315E2,5.8919966E-2,1.057E2,1E0,7.5815E3,-7.410439E-2,5.5387344E-2,-2.387237E-4,1.4431602E-1,8.873507E-2,-7.0175596E-2,-1.0560834E-2,3.3495184E-2,-3.4354057E-2,4.9027354E-2,1.1424676E-1,1.7014494E-2,5.997994E-2,-1.6090456E-2,-7.867968E-2,-1.83965E-2,2.7053213E-2,-3.878312E-2,-8.081509E-2,-7.6222955E-3,-9.907215E-2,2.6831342E-2,1.1348511E-1,-3.395855E-2,-9.2441075E-2,6.9991015E-2,-2.3280825E-2,-2.2975864E-2,-8.36629E-2,1.2487932E-1,-2.82273E-2,-7.028662E-2,2.8769476E-2,-5.8912225E-2,-9.862794E-2,-5.865484E-2,5.139172E-3,-8.2428E-3,-8.739742E-2,-6.097197E-2,3.6337677E-2,-1.26731545E-2,-7.2549485E-2,-5.7110984E-2,2.7994577E-2],"split_indices":[3,5,1,0,1,5,0,1,1,0,2,0,3,3,5,2,1,7,2,1,1,1,2,2,7,1,0,2,7,1,0,6,0,2,0,2,7,2,1,2,7,1,0,2,0,0,0,0,1,0,0,6,0,1,0,1,6,2,0,0,0,0,0,0,0,0,0,0,0,0,0,0,0,0,0,0,0,0,0,0,0,0,0,0,0,0,0,0,0,0,0,0,0,0,0,0,0,0,0,0,0,0,0],"split_type":[0,0,0,0,0,0,0,0,0,0,0,0,0,0,0,0,0,0,0,0,0,0,0,0,0,0,0,0,0,0,0,0,0,0,0,0,0,0,0,0,0,0,0,0,0,0,0,0,0,0,0,0,0,0,0,0,0,0,0,0,0,0,0,0,0,0,0,0,0,0,0,0,0,0,0,0,0,0,0,0,0,0,0,0,0,0,0,0,0,0,0,0,0,0,0,0,0,0,0,0,0,0,0],"sum_hessian":[9.932134E2,6.6608905E2,3.271243E2,4.8062286E2,1.8546617E2,2.294151E2,9.7709206E1,2.0033192E2,2.8029092E2,1.5223607E2,3.32301E1,5.630939E1,1.7310571E2,7.637046E1,2.1338747E1,7.572286E1,1.2460906E2,1.24670876E2,1.5562006E2,5.093284E1,1.0130324E2,1.483574E1,1.8394358E1,3.197264E1,2.433675E1,7.102121E1,1.020845E2,5.3339436E1,2.3031023E1,7.9463253E0,1.3392423E1,7.259019E1,3.13268E0,1.2335952E2,1.2495483E0,4.7443714E1,7.722716E1,4.1321938E1,1.1429813E2,5.190646E0,4.574219E1,3.6969837E1,6.43334E1,1.3626808E1,1.2089314E0,4.076655E0,1.4317703E1,1.8151604E1,1.3821034E1,1.6294275E1,8.042476E0,5.4436485E1,1.6584726E1,5.105906E1,2.2803748E0,8.880949E0,1.4150075E1,6.2776847E0,1.6686406E0,6.231806E1,1.0272124E1,7.3595753E0,1.1599994E2,5.2097836E0,4.2233932E1,5.755191E1,1.9675251E1,1.8744055E1,2.2577885E1,5.9537548E1,5.4760574E1,3.480214E0,1.7104319E0,7.130806E0,3.8611385E1,2.313897E1,1.3830869E1,6.043154E1,3.901857E0,1.7222316E0,1.1904577E1,2.098333E0,1.9783223E0,1.9578359E0,1.2359867E1,1.0935962E1,7.2156425E0,1.0688547E0,1.2752179E1,5.089993E0,2.952483E0,1.0846814E1,4.358967E1,1.3504644E1,3.080082E0,4.9069557E1,1.9895029E0,4.424369E0,4.45658E0,2.8868082E0,1.1263267E1,3.904488E0,2.3731966E0],"tree_param":{"num_deleted":"0","num_feature":"8","num_nodes":"103","size_leaf_vector":"1"}},{"base_weights":[-1.2559155E-2,2.9335243E-1,-6.641598E-1,4.3214288E-1,-8.648821E-2,-8.1867963E-1,-3.1122854E-1,6.283918E-1,2.4247517E-1,-2.1603557E-1,1.7049412E-1,-5.078699E-1,-9.195213E-1,-1.8492842E-1,-7.510309E-1,3.5728595E-1,7.9365873E-1,-1.379611E-1,3.5335174E-1,-6.449873E-2,-7.284407E-1,3.0386457E-1,-4.9624014E-1,-3.517194E-1,-8.602641E-1,-7.9035187E-1,-1.0018965E-1,-8.076413E-2,-4.1789505E-1,-4.0659887E-1,-9.188549E-1,4.2771572E-1,-3.642141E-1,1.0808454E0,6.6439134E-1,-6.823181E-2,-8.052229E-2,1.1692669E-1,4.7822186E-1,-1.2498016E-1,5.850537E-1,-6.0021017E-2,-8.2362425E-1,8.135653E-1,1.6344626E-1,-9.455706E-2,-2.5046703E-1,-4.5256314E-1,3.0760055E-2,-3.1199116E-1,-9.872615E-2,-8.902204E-1,-4.4095093E-1,-2.826496E-1,4.793496E-2,-1.2511276E-1,-5.851947E-1,-7.940309E-2,-5.3786E-1,-3.5544787E-2,-9.6691735E-2,5.4652195E-2,1.7968124E-2,-8.272784E-2,3.6556777E-2,3.896421E-2,1.1121452E-1,3.240172E-2,8.153575E-2,-5.0110158E-2,3.006404E-3,1.5033475E-2,-8.1419624E-2,5.4065287E-2,-1.1079449E-2,1.9496564E-2,-2.7282843E-2,7.9956464E-2,-3.1361427E-2,-6.7809515E-2,3.995577E-2,-6.576859E-2,-1.0525819E-1,2.0849958E-2,9.8731E-2,-6.31203E-2,2.4058051E-2,-6.814244E-2,7.2930614E-3,-5.208003E-2,2.3851378E-2,-7.177083E-2,2.6056161E-2,-5.8505177E-2,3.0917997E-2,-5.5622485E-2,-9.607542E-2,-5.5211008E-2,4.739006E-3,9.774665E-3,-3.794397E-2,2.402587E-2,-1.5251352E-2,-5.801625E-2,3.2870706E-2,-1.1808705E-2,-6.889064E-2,-3.443012E-2,2.7621726E-2,-1.0817256E-2,-6.939535E-2],"categories":[],"categories_nodes":[],"categories_segments":[],"categories_sizes":[],"default_left":[0,0,0,0,0,0,0,0,0,0,0,0,0,0,0,0,0,0,0,0,0,0,0,0,0,0,0,0,0,0,0,0,0,0,0,0,0,0,0,0,0,0,0,0,0,0,0,0,0,0,0,0,0,0,0,0,0,0,0,0,0,0,0,0,0,0,0,0,0,0,0,0,0,0,0,0,0,0,0,0,0,0,0,0,0,0,0,0,0,0,0,0,0,0,0,0,0,0,0,0,0,0,0,0,0,0,0,0,0,0,0],"id":9,"left_children":[1,3,5,7,9,11,13,15,17,19,21,23,25,27,29,31,33,35,37,39,41,43,45,47,49,51,-1,53,55,57,59,61,63,65,67,69,-1,71,73,75,77,79,81,83,85,-1,87,89,91,93,-1,95,97,99,101,103,105,107,109,-1,-1,-1,-1,-1,-1,-1,-1,-1,-1,-1,-1,-1,-1,-1,-1,-1,-1,-1,-1,-1,-1,-1,-1,-1,-1,-1,-1,-1,-1,-1,-1,-1,-1,-1,-1,-1,-1,-1,-1,-1,-1,-1,-1,-1,-1,-1,-1,-1,-1,-1,-1],"loss_changes":[1.9497147E2,3.512956E1,1.678685E1,1.8000336E1,5.9949493E0,6.3256683E0,5.2362585E0,1.0427345E1,1.057851E1,9.226358E0,5.5342712E0,2.741725E0,9.361267E-1,1.8227751E0,8.554554E-1,4.848879E0,4.765091E0,2.599659E0,5.658905E0,3.7371852E0,1.6786032E0,3.522152E0,9.195647E-1,1.5578375E0,8.266516E-1,1.9793625E0,0E0,1.4193684E0,1.0728908E0,3.3350587E-1,2.1950722E-2,2.3948727E0,3.260633E0,5.240021E-1,5.1029434E0,2.259485E0,0E0,2.244736E0,4.70611E0,4.1282034E0,1.8161931E0,1.5390122E0,2.080307E-1,9.2731714E-1,2.6827517E0,0E0,1.1826848E0,1.6209917E0,1.7845563E0,9.487053E-1,0E0,6.8785095E-1,9.53953E-1,8.179765E-1,1.3434211E0,2.210434E0,6.268139E-1,4.418827E-1,3.3262873E-1,0E0,0E0,0E0,0E0,0E0,0E0,0E0,0E0,0E0,0E0,0E0,0E0,0E0,0E0,0E0,0E0,0E0,0E0,0E0,0E0,0E0,0E0,0E0,0E0,0E0,0E0,0E0,0E0,0E0,0E0,0E0,0E0,0E0,0E0,0E0,0E0,0E0,0E0,0E0,0E0,0E0,0E0,0E0,0E0,0E0,0E0,0E0,0E0,0E0,0E0,0E0,0E0],"parents":[2147483647,0,0,1,1,2,2,3,3,4,4,5,5,6,6,7,7,8,8,9,9,10,10,11,11,12,12,13,13,14,14,15,15,16,16,17,17,18,18,19,19,20,20,21,21,22,22,23,23,24,24,25,25,27,27,28,28,29,29,30,30,31,31,32,32,33,33,34,34,35,35,37,37,38,38,39,39,40,40,41,41,42,42,43,43,44,44,46,46,47,47,48,48,49,49,51,51,52,52,53,53,54,54,55,55,56,56,57,57,58,58],"right_children":[2,4,6,8,10,12,14,16,18,20,22,24,26,28,30,32,34,36,38,40,42,44,46,48,50,52,-1,54,56,58,60,62,64,66,68,70,-1,72,74,76,78,80,82,84,86,-1,88,90,92,94,-1,96,98,100,102,104,106,108,110,-1,-1,-1,-1,-1,-1,-1,-1,-1,-1,-1,-1,-1,-1,-1,-1,-1,-1,-1,-1,-1,-1,-1,-1,-1,-1,-1,-1,-1,-1,-1,-1,-1,-1,-1,-1,-1,-1,-1,-1,-1,-1,-1,-1,-1,-1,-1,-1,-1,-1,-1,-1],"split_conditions":[1E0,1E0,9.355E1,1.1E1,7.92E1,1E0,7.1E1,1E0,1E0,1.8E1,4.8E1,2E0,2E0,2E0,1E0,5.66E1,2E0,6.56E1,2E0,1.5E1,1.97E1,7E0,1E0,3E0,5.45E1,7.245E1,-1.0018965E-1,1.015E2,1E0,1.044E2,2E0,4E0,6.56E1,2E0,7.58E1,1.4E1,-8.052229E-2,1.079E2,5.6E1,2.095E1,5.885E1,1.94E1,3E0,8.38E1,1E1,-9.455706E-2,9.92E1,5.21265E3,8.6485E2,5.18E1,-9.872615E-2,1E0,6.5E1,3.7697E3,1.0605E2,1.057E2,1E0,1.0125E2,7.2E1,-3.5544787E-2,-9.6691735E-2,5.4652195E-2,1.7968124E-2,-8.272784E-2,3.6556777E-2,3.896421E-2,1.1121452E-1,3.240172E-2,8.153575E-2,-5.0110158E-2,3.006404E-3,1.5033475E-2,-8.1419624E-2,5.4065287E-2,-1.1079449E-2,1.9496564E-2,-2.7282843E-2,7.9956464E-2,-3.1361427E-2,-6.7809515E-2,3.995577E-2,-6.576859E-2,-1.0525819E-1,2.0849958E-2,9.8731E-2,-6.31203E-2,2.4058051E-2,-6.814244E-2,7.2930614E-3,-5.208003E-2,2.3851378E-2,-7.177083E-2,2.6056161E-2,-5.8505177E-2,3.0917997E-2,-5.5622485E-2,-9.607542E-2,-5.5211008E-2,4.739006E-3,9.774665E-3,-3.794397E-2,2.402587E-2,-1.5251352E-2,-5.801625E-2,3.2870706E-2,-1.1808705E-2,-6.889064E-2,-3.443012E-2,2.7621726E-2,-1.0817256E-2,-6.939535E-2],"split_indices":[3,6,1,0,1,5,0,4,4,0,0,3,3,3,5,1,0,1,7,0,1,0,7,7,1,1,0,1,7,1,3,0,1,7,1,0,0,1,0,2,1,1,7,1,0,0,1,2,2,1,0,6,0,2,1,1,6,1,0,0,0,0,0,0,0,0,0,0,0,0,0,0,0,0,0,0,0,0,0,0,0,0,0,0,0,0,0,0,0,0,0,0,0,0,0,0,0,0,0,0,0,0,0,0,0,0,0,0,0,0,0],"split_type":[0,0,0,0,0,0,0,0,0,0,0,0,0,0,0,0,0,0,0,0,0,0,0,0,0,0,0,0,0,0,0,0,0,0,0,0,0,0,0,0,0,0,0,0,0,0,0,0,0,0,0,0,0,0,0,0,0,0,0,0,0,0,0,0,0,0,0,0,0,0,0,0,0,0,0,0,0,0,0,0,0,0,0,0,0,0,0,0,0,0,0,0,0,0,0,0,0,0,0,0,0,0,0,0,0,0,0,0,0,0,0],"sum_hessian":[9.7614594E2,6.646553E2,3.1149066E2,4.8668655E2,1.7796873E2,2.1572331E2,9.576736E1,2.3805663E2,2.4862994E2,1.1842755E2,5.9541176E1,5.432414E1,1.6139917E2,7.5504776E1,2.0262579E1,9.13564E1,1.4670023E2,5.6054207E1,1.9257573E2,9.2266785E1,2.6160769E1,5.006971E1,9.471464E0,3.902828E1,1.5295858E1,6.697413E1,9.442505E1,5.310644E1,2.2398333E1,7.7597322E0,1.2502847E1,8.3602646E1,7.7537503E0,4.325082E1,1.0344941E2,5.174869E1,4.3055162E0,6.722689E1,1.2534885E2,8.51462E1,7.120583E0,3.464206E0,2.2696564E1,9.779065E0,4.0290646E1,2.3421454E0,7.1293187E0,3.0740158E1,8.28812E0,3.5267708E0,1.1769088E1,5.0882603E1,1.6091522E1,2.020905E1,3.2897392E1,8.780275E0,1.3618058E1,2.6812017E0,5.078531E0,1.6426454E0,1.0860202E1,5.5713146E1,2.78895E1,4.6620007E0,3.0917494E0,2.456299E0,4.079452E1,3.2751934E1,7.069748E1,8.818109E0,4.2930584E1,6.570788E1,1.519009E0,1.1341036E2,1.193848E1,2.6810091E1,5.833611E1,5.837465E0,1.2831179E0,1.2745839E0,2.189622E0,1.54045515E1,7.2920117E0,2.6724153E0,7.10665E0,2.9293058E0,3.736134E1,2.5817795E0,4.547539E0,2.8201889E1,2.5382695E0,1.4481853E0,6.839935E0,2.4902353E0,1.0365355E0,1.04212475E1,4.0461353E1,1.3001467E1,3.0900557E0,4.0970984E0,1.6111952E1,1.668759E1,1.62098E1,4.245186E0,4.535089E0,2.8628151E0,1.0755243E1,1.5548434E0,1.1263583E0,1.8044143E0,3.2741165E0],"tree_param":{"num_deleted":"0","num_feature":"8","num_nodes":"111","size_leaf_vector":"1"}},{"base_weights":[-1.3241813E-2,2.6464704E-1,-6.319401E-1,3.9462665E-1,-7.607552E-2,-7.87921E-1,-2.8997323E-1,5.402542E-1,1.6384496E-1,-1.4948684E-1,2.5231472E-1,-6.007453E-1,-9.667989E-2,-1.7041953E-1,-7.21508E-1,3.2807997E-1,7.1814185E-1,1.9496871E-2,5.0397015E-1,9.1136456E-2,-2.7406645E-1,8.427139E-1,-2.4281444E-1,-3.2634127E-1,-7.586486E-1,-7.359461E-2,-3.9154556E-1,-3.8425004E-1,-8.9267033E-1,6.5857035E-1,9.9326484E-2,7.4087083E-1,-1.8472719E-1,-3.1017688E-1,1.0041782E-1,-3.8919675E-1,5.5227345E-1,-4.4492435E-1,1.5852138E-1,-5.152433E-1,-1.3488401E-1,9.184468E-1,-3.4715366E-3,-7.329356E-1,-6.553634E-2,-5.188276E-1,-1.2654887E-1,-8.6184865E-1,-4.1160387E-1,-1.1249076E-1,5.5042857E-1,-6.1476E-1,-1.690871E-1,-2.167353E-1,-7.016738E-2,-9.4469166E-1,-3.4632873E-2,3.52285E-2,1.01512685E-1,2.1176016E-2,-2.090129E-2,6.794546E-2,1.284924E-1,-5.3623285E-2,3.4296013E-2,1.3655207E-2,-5.9884865E-2,-3.324656E-2,2.1020982E-2,-5.717845E-2,-2.804603E-3,6.5838814E-2,1.6338808E-2,-1.6334746E-2,-7.578405E-2,8.642727E-3,4.9545933E-2,-8.926117E-3,-5.987058E-2,-2.9026943E-3,-6.363259E-2,1.920031E-2,1.0017327E-1,-3.346678E-2,-9.031149E-2,7.287508E-2,-1.983448E-2,3.0363187E-2,-7.683175E-2,-3.4319248E-2,4.9002882E-2,-5.245747E-2,-9.3594775E-2,1.5640171E-2,-4.951663E-2,-6.811354E-3,-8.376637E-2,6.6701636E-2,1.8153032E-2,2.7725704E-3,-7.916085E-2,3.4359545E-2,-5.4550506E-2,-5.304742E-2,2.874071E-2,-1.01387635E-1,-4.0214542E-2],"categories":[],"categories_nodes":[],"categories_segments":[],"categories_sizes":[],"default_left":[0,0,0,0,0,0,0,0,0,0,0,0,0,0,0,0,0,0,0,0,0,0,0,0,0,0,0,0,0,0,0,0,0,0,0,0,0,0,0,0,0,0,0,0,0,0,0,0,0,0,0,0,0,0,0,0,0,0,0,0,0,0,0,0,0,0,0,0,0,0,0,0,0,0,0,0,0,0,0,0,0,0,0,0,0,0,0,0,0,0,0,0,0,0,0,0,0,0,0,0,0,0,0,0,0,0,0],"id":10,"left_children":[1,3,5,7,9,11,13,15,17,19,21,23,-1,25,27,29,31,33,35,37,39,41,43,45,47,49,51,53,55,57,59,61,63,65,67,69,71,73,75,77,79,81,-1,83,85,87,89,91,93,95,97,99,101,103,-1,105,-1,-1,-1,-1,-1,-1,-1,-1,-1,-1,-1,-1,-1,-1,-1,-1,-1,-1,-1,-1,-1,-1,-1,-1,-1,-1,-1,-1,-1,-1,-1,-1,-1,-1,-1,-1,-1,-1,-1,-1,-1,-1,-1,-1,-1,-1,-1,-1,-1,-1,-1],"loss_changes":[1.6530215E2,2.941415E1,1.5666275E1,1.6058144E1,4.474844E0,6.2514877E0,4.7744303E0,1.0865715E1,9.186438E0,4.55313E0,1.0143621E1,4.187561E0,0E0,1.5907185E0,8.2790947E-1,1.0214648E1,3.4028091E0,3.5670297E0,2.6209602E0,1.9589794E0,3.2797503E0,1.0772591E0,1.6261431E0,1.4396453E0,1.9451866E0,1.3686886E0,1.0283878E0,3.0438876E-1,3.3766747E-2,5.6972084E0,2.8709004E0,4.3208313E0,1.0572636E0,3.4819052E0,5.1636324E0,2.1132284E-1,2.092783E0,4.1372752E-1,1.1032058E0,1.232027E0,3.4116569E0,6.860485E-1,0E0,3.7992954E-2,1.7530607E0,4.257781E0,2.9104135E0,7.2320557E-1,8.6692286E-1,1.6005881E0,2.2076368E-2,1.2721457E0,2.657721E0,1.2700951E0,0E0,5.7964325E-3,0E0,0E0,0E0,0E0,0E0,0E0,0E0,0E0,0E0,0E0,0E0,0E0,0E0,0E0,0E0,0E0,0E0,0E0,0E0,0E0,0E0,0E0,0E0,0E0,0E0,0E0,0E0,0E0,0E0,0E0,0E0,0E0,0E0,0E0,0E0,0E0,0E0,0E0,0E0,0E0,0E0,0E0,0E0,0E0,0E0,0E0,0E0,0E0,0E0,0E0,0E0],"parents":[2147483647,0,0,1,1,2,2,3,3,4,4,5,5,6,6,7,7,8,8,9,9,10,10,11,11,13,13,14,14,15,15,16,16,17,17,18,18,19,19,20,20,21,21,22,22,23,23,24,24,25,25,26,26,27,27,28,28,29,29,30,30,31,31,32,32,33,33,34,34,35,35,36,36,37,37,38,38,39,39,40,40,41,41,43,43,44,44,45,45,46,46,47,47,48,48,49,49,50,50,51,51,52,52,53,53,55,55],"right_children":[2,4,6,8,10,12,14,16,18,20,22,24,-1,26,28,30,32,34,36,38,40,42,44,46,48,50,52,54,56,58,60,62,64,66,68,70,72,74,76,78,80,82,-1,84,86,88,90,92,94,96,98,100,102,104,-1,106,-1,-1,-1,-1,-1,-1,-1,-1,-1,-1,-1,-1,-1,-1,-1,-1,-1,-1,-1,-1,-1,-1,-1,-1,-1,-1,-1,-1,-1,-1,-1,-1,-1,-1,-1,-1,-1,-1,-1,-1,-1,-1,-1,-1,-1,-1,-1,-1,-1,-1,-1],"split_conditions":[1E0,1E0,9.355E1,1.7E1,9.125E1,2E0,7.1E1,7.08E1,9.565E1,4E0,2.89795E3,1E0,-9.667989E-2,2E0,1E0,8.08E1,1.0245E2,5.5E1,1.83415E3,1.945E1,3.025E1,1.0465E2,4.0542E3,2E0,7.245E1,7.49175E3,1.0605E2,1.0955E2,1.1625E2,5.015E1,4.7E2,9.755E1,1.054E2,4.135E1,1E0,1.753E3,5.54255E3,1.94E1,5.475E1,1E0,4.3E1,3.6925E2,-3.4715366E-3,3.5E1,4.3E1,2.4E1,8.11E1,1E0,7.44E1,1.1315E2,1.109E2,9.63E1,1.099E2,7.5815E3,-7.016738E-2,2E0,-3.4632873E-2,3.52285E-2,1.01512685E-1,2.1176016E-2,-2.090129E-2,6.794546E-2,1.284924E-1,-5.3623285E-2,3.4296013E-2,1.3655207E-2,-5.9884865E-2,-3.324656E-2,2.1020982E-2,-5.717845E-2,-2.804603E-3,6.5838814E-2,1.6338808E-2,-1.6334746E-2,-7.578405E-2,8.642727E-3,4.9545933E-2,-8.926117E-3,-5.987058E-2,-2.9026943E-3,-6.363259E-2,1.920031E-2,1.0017327E-1,-3.346678E-2,-9.031149E-2,7.287508E-2,-1.983448E-2,3.0363187E-2,-7.683175E-2,-3.4319248E-2,4.9002882E-2,-5.245747E-2,-9.3594775E-2,1.5640171E-2,-4.951663E-2,-6.811354E-3,-8.376637E-2,6.6701636E-2,1.8153032E-2,2.7725704E-3,-7.916085E-2,3.4359545E-2,-5.4550506E-2,-5.304742E-2,2.874071E-2,-1.01387635E-1,-4.0214542E-2],"split_indices":[3,5,1,0,1,3,0,1,1,0,2,5,0,3,5,2,1,1,2,1,1,1,2,7,1,2,1,1,1,2,2,1,1,1,7,2,2,2,1,7,0,2,0,0,0,0,1,6,1,1,1,1,1,2,0,7,0,0,0,0,0,0,0,0,0,0,0,0,0,0,0,0,0,0,0,0,0,0,0,0,0,0,0,0,0,0,0,0,0,0,0,0,0,0,0,0,0,0,0,0,0,0,0,0,0,0,0],"split_type":[0,0,0,0,0,0,0,0,0,0,0,0,0,0,0,0,0,0,0,0,0,0,0,0,0,0,0,0,0,0,0,0,0,0,0,0,0,0,0,0,0,0,0,0,0,0,0,0,0,0,0,0,0,0,0,0,0,0,0,0,0,0,0,0,0,0,0,0,0,0,0,0,0,0,0,0,0,0,0,0,0,0,0,0,0,0,0,0,0,0,0,0,0,0,0,0,0,0,0,0,0,0,0,0,0,0,0],"sum_hessian":[9.5948114E2,6.624938E2,2.9698737E2,4.7943835E2,1.830554E2,2.0306123E2,9.392613E1,2.9312808E2,1.8631026E2,1.5005545E2,3.2999958E1,1.0135892E2,1.01702324E2,7.4642006E1,1.9284128E1,1.349782E2,1.581499E2,1.3154169E2,5.4768566E1,5.127915E1,9.87763E1,1.4731682E1,1.8268278E1,3.8142185E1,6.3216736E1,5.2838375E1,2.180363E1,7.584529E0,1.16996E1,5.4443E1,8.053519E1,1.544414E2,3.7085042E0,2.5366188E1,1.0617551E2,2.4478815E0,5.2320683E1,5.100546E0,4.61786E1,3.5155884E1,6.362042E1,1.3518151E1,1.21353E0,4.0199447E0,1.4248333E1,1.8612999E1,1.9529186E1,4.758351E1,1.5633223E1,5.050977E1,2.3286052E0,1.0003078E1,1.1800552E1,6.0660653E0,1.5184637E0,1.0016711E1,1.6828892E0,3.0355427E1,2.4087572E1,5.924512E1,2.129007E1,1.4079626E2,1.3645129E1,2.2161064E0,1.4923977E0,1.0164011E1,1.5202176E1,2.1070694E1,8.510481E1,1.2385006E0,1.209381E0,4.0560085E1,1.1760597E1,3.4858384E0,1.6147075E0,3.9074413E1,7.1041884E0,6.098642E0,2.905724E1,5.3404358E1,1.0216061E1,1.7304052E0,1.1787746E1,2.0915902E0,1.9283544E0,1.3982987E0,1.2850035E1,4.2815576E0,1.4331441E1,1.4779561E1,4.7496243E0,1.0026344E1,3.7557167E1,1.8931425E0,1.374008E1,4.8627895E1,1.8818748E0,1.1553376E0,1.1732675E0,2.3411102E0,7.661968E0,5.0329094E0,6.767643E0,3.7069304E0,2.359135E0,8.113369E0,1.9033414E0],"tree_param":{"num_deleted":"0","num_feature":"8","num_nodes":"107","size_leaf_vector":"1"}},{"base_weights":[-1.33808935E-2,2.3945284E-1,-6.0038555E-1,3.5786518E-1,-8.772121E-2,-7.5735044E-1,-2.704182E-1,5.2397966E-1,1.995985E-1,2.5032662E-2,-3.1772318E-1,-5.6890213E-1,-9.4330214E-2,-6.5892845E-2,-5.0664896E-1,2.8996077E-1,6.715195E-1,9.450153E-2,5.224593E-1,-7.278365E-2,4.900017E-1,-5.2574015E-1,9.286222E-2,-9.6284044E-1,-4.545138E-1,-1.282957E-1,1.1502148E-1,-1.0226399E-1,-3.9270276E-1,3.341602E-1,-6.004135E-1,9.528451E-1,5.5049384E-1,1.4519681E-1,-3.165884E-1,5.809236E-1,-2.3613434E-1,1.7116685E-1,-1.6618821E-1,6.696338E-1,-7.6086625E-2,-9.2138356E-1,-3.834975E-1,2.98419E-1,-4.7810096E-1,-5.108103E-1,-1.0444198E-1,-4.9597582E-1,1.0420518E-1,-3.4257513E-1,1.33587E-1,4.089941E-1,-4.8595238E-1,-1.755701E-4,4.055589E-2,-8.568492E-2,-1.055908E-2,3.0746171E-2,9.84355E-2,3.6900226E-2,7.919731E-2,-7.795211E-3,3.1189894E-2,-5.147643E-2,4.2341273E-2,1.318175E-1,5.165082E-2,6.290844E-2,-9.260077E-2,-1.1978631E-2,3.764825E-2,-4.2348728E-2,6.1764736E-3,3.434732E-2,1.4012933E-1,-6.0913265E-2,3.450253E-2,-2.3046438E-2,-1.105503E-1,-1.716165E-2,-8.732227E-2,4.479736E-2,-1.4330754E-2,-6.413811E-2,2.4765625E-3,-7.8417175E-2,7.364363E-4,-3.679505E-2,-7.970823E-2,4.457664E-2,-6.8664186E-2,-8.548498E-2,-6.015197E-3,8.5075036E-2,-1.9615948E-2,-3.2950412E-2,8.716523E-2,-3.1156024E-2,-8.4440015E-2],"categories":[],"categories_nodes":[],"categories_segments":[],"categories_sizes":[],"default_left":[0,0,0,0,0,0,0,0,0,0,0,0,0,0,0,0,0,0,0,0,0,0,0,0,0,0,0,0,0,0,0,0,0,0,0,0,0,0,0,0,0,0,0,0,0,0,0,0,0,0,0,0,0,0,0,0,0,0,0,0,0,0,0,0,0,0,0,0,0,0,0,0,0,0,0,0,0,0,0,0,0,0,0,0,0,0,0,0,0,0,0,0,0,0,0,0,0,0,0],"id":11,"left_children":[1,3,5,7,9,11,13,15,17,19,21,23,-1,25,27,29,31,33,35,37,39,41,43,45,47,49,-1,-1,51,53,55,57,59,61,63,65,67,69,71,73,75,77,79,81,83,85,-1,87,89,91,93,95,97,-1,-1,-1,-1,-1,-1,-1,-1,-1,-1,-1,-1,-1,-1,-1,-1,-1,-1,-1,-1,-1,-1,-1,-1,-1,-1,-1,-1,-1,-1,-1,-1,-1,-1,-1,-1,-1,-1,-1,-1,-1,-1,-1,-1,-1,-1],"loss_changes":[1.4023671E2,2.5619114E1,1.4528084E1,1.2650288E1,4.580589E0,6.1986465E0,4.4720526E0,7.9568863E0,8.43561E0,5.459103E0,5.009018E0,3.9775925E0,0E0,4.027671E0,2.1337738E0,3.8625832E0,4.379715E0,4.002963E0,2.8509254E0,2.2931519E0,2.1716423E0,1.8244133E0,2.5344698E0,2.4659729E-1,1.8545837E0,2.825363E0,0E0,0E0,2.9607058E0,2.1423168E0,5.133059E-1,5.5062485E-1,4.2254963E0,6.3375473E0,3.3209026E0,2.030819E0,3.620307E0,1.7183973E0,4.271326E0,3.3210077E0,1.5393987E0,9.563179E-1,2.9813685E0,1.0947763E0,4.9038327E-1,7.41133E-1,0E0,2.5063038E0,1.981608E0,3.9305656E0,5.6083326E0,1.7880217E0,1.8343167E0,0E0,0E0,0E0,0E0,0E0,0E0,0E0,0E0,0E0,0E0,0E0,0E0,0E0,0E0,0E0,0E0,0E0,0E0,0E0,0E0,0E0,0E0,0E0,0E0,0E0,0E0,0E0,0E0,0E0,0E0,0E0,0E0,0E0,0E0,0E0,0E0,0E0,0E0,0E0,0E0,0E0,0E0,0E0,0E0,0E0,0E0],"parents":[2147483647,0,0,1,1,2,2,3,3,4,4,5,5,6,6,7,7,8,8,9,9,10,10,11,11,13,13,14,14,15,15,16,16,17,17,18,18,19,19,20,20,21,21,22,22,23,23,24,24,25,25,28,28,29,29,30,30,31,31,32,32,33,33,34,34,35,35,36,36,37,37,38,38,39,39,40,40,41,41,42,42,43,43,44,44,45,45,47,47,48,48,49,49,50,50,51,51,52,52],"right_children":[2,4,6,8,10,12,14,16,18,20,22,24,-1,26,28,30,32,34,36,38,40,42,44,46,48,50,-1,-1,52,54,56,58,60,62,64,66,68,70,72,74,76,78,80,82,84,86,-1,88,90,92,94,96,98,-1,-1,-1,-1,-1,-1,-1,-1,-1,-1,-1,-1,-1,-1,-1,-1,-1,-1,-1,-1,-1,-1,-1,-1,-1,-1,-1,-1,-1,-1,-1,-1,-1,-1,-1,-1,-1,-1,-1,-1,-1,-1,-1,-1,-1,-1],"split_conditions":[1E0,1E0,9.355E1,1.1E1,2E1,2E0,6.6541E3,1E0,9.54E1,8.38E1,9.86E1,2.08E1,-9.4330214E-2,6.6E1,1.0315E2,4.571E2,2E0,3E0,1.064E2,2.095E1,1E2,1E0,5.47175E3,2.3255E2,5.2652E3,2E0,1.1502148E-1,-1.0226399E-1,1.044E2,2E0,1E0,2E0,8.435E1,2E0,8.47E1,1.22205E3,5.1255E3,1.99E1,2.54E1,9.595E1,1.0315E2,1.07795E3,3E0,1E0,6.4E1,8E0,-1.0444198E-1,3.26805E3,7E1,4.6E1,4.4E1,1.0395E2,7.2E1,-1.755701E-4,4.055589E-2,-8.568492E-2,-1.055908E-2,3.0746171E-2,9.84355E-2,3.6900226E-2,7.919731E-2,-7.795211E-3,3.1189894E-2,-5.147643E-2,4.2341273E-2,1.318175E-1,5.165082E-2,6.290844E-2,-9.260077E-2,-1.1978631E-2,3.764825E-2,-4.2348728E-2,6.1764736E-3,3.434732E-2,1.4012933E-1,-6.0913265E-2,3.450253E-2,-2.3046438E-2,-1.105503E-1,-1.716165E-2,-8.732227E-2,4.479736E-2,-1.4330754E-2,-6.413811E-2,2.4765625E-3,-7.8417175E-2,7.364363E-4,-3.679505E-2,-7.970823E-2,4.457664E-2,-6.8664186E-2,-8.548498E-2,-6.015197E-3,8.5075036E-2,-1.9615948E-2,-3.2950412E-2,8.716523E-2,-3.1156024E-2,-8.4440015E-2],"split_indices":[3,6,1,0,0,3,2,4,1,1,1,1,0,0,1,2,0,7,1,2,1,7,2,2,2,7,0,0,1,7,5,7,1,7,1,2,2,1,1,1,1,2,7,5,0,0,0,2,0,0,0,1,0,0,0,0,0,0,0,0,0,0,0,0,0,0,0,0,0,0,0,0,0,0,0,0,0,0,0,0,0,0,0,0,0,0,0,0,0,0,0,0,0,0,0,0,0,0,0],"split_type":[0,0,0,0,0,0,0,0,0,0,0,0,0,0,0,0,0,0,0,0,0,0,0,0,0,0,0,0,0,0,0,0,0,0,0,0,0,0,0,0,0,0,0,0,0,0,0,0,0,0,0,0,0,0,0,0,0,0,0,0,0,0,0,0,0,0,0,0,0,0,0,0,0,0,0,0,0,0,0,0,0,0,0,0,0,0,0,0,0,0,0,0,0,0,0,0,0,0,0],"sum_hessian":[9.4292975E2,6.594741E2,2.834556E2,4.8415332E2,1.753208E2,1.9120465E2,9.225095E1,2.3509264E2,2.4906067E2,1.18244804E2,5.7075996E1,9.6981E1,9.422365E1,5.0128937E1,4.2122017E1,9.2051445E1,1.430412E2,1.8887212E2,6.0188553E1,9.838984E1,1.9854967E1,3.7696938E1,1.9379059E1,2.0154448E1,7.682655E1,4.8533035E1,1.5959016E0,6.176727E0,3.5945293E1,8.8293144E1,3.7582989E0,4.095883E1,1.0208237E2,1.6871333E2,2.0158792E1,5.6099236E1,4.089318E0,2.7011002E1,7.137884E1,1.4933372E1,4.9215956E0,8.520339E0,2.9176598E1,1.4600105E1,4.778953E0,4.1914115E0,1.5963036E1,7.162372E1,5.202833E0,2.6523046E1,2.2009987E1,3.3925388E0,3.2552753E1,1.5648001E1,7.264514E1,1.9935424E0,1.7647566E0,2.40744E0,3.855139E1,5.9723392E1,4.2358974E1,7.237026E1,9.634307E1,1.6140627E1,4.018164E0,2.943739E0,5.3155495E1,1.8532023E0,2.2361155E0,1.1347299E1,1.5663703E1,3.312811E1,3.825073E1,1.134529E1,3.5880811E0,1.9750627E0,2.9465327E0,2.2665787E0,6.2537603E0,2.1308046E1,7.8685517E0,1.0896688E1,3.7034166E0,3.3996437E0,1.3793097E0,2.4078321E0,1.7835795E0,5.18149E1,1.9808819E1,3.938267E0,1.2645664E0,8.705567E0,1.781748E1,6.4348545E0,1.5575133E1,1.4175837E0,1.9749551E0,2.3156054E1,9.3967E0],"tree_param":{"num_deleted":"0","num_feature":"8","num_nodes":"99","size_leaf_vector":"1"}},{"base_weights":[-1.3162551E-2,2.1691379E-1,-5.6860954E-1,3.2390317E-1,-8.090863E-2,-2.510396E-1,-7.3568153E-1,4.763504E-1,1.7995548E-1,3.2665566E-2,-2.8226095E-1,-4.4013324E-1,-2.0392602E-3,-8.325718E-1,-2.930705E-1,3.3895925E-1,7.081552E-1,8.6931095E-2,4.7894695E-1,-1.21185064E-1,2.396344E-1,-6.8555564E-1,-2.9136505E-2,3.0525225E-1,-5.205648E-1,-3.59315E-1,2.7450758E-1,-6.9460475E-1,-9.361645E-2,2.0672801E-1,-7.020048E-1,4.4296947E-1,-2.5142094E-2,7.598076E-1,2.1681395E-1,1.17636226E-1,-5.8606464E-1,5.339446E-1,-2.2309124E-1,1.472874E-1,-3.3471796E-1,1.3193777E-1,1.6278276E-1,5.2802265E-3,-7.934629E-1,9.513413E-1,-1.1162297E-1,9.090918E-1,-3.3266884E-1,-7.2391075E-1,-1.9032542E-1,-4.6118033E-1,5.3965986E-2,4.5329827E-1,-4.455904E-1,-8.1953627E-1,-4.446594E-1,4.1677833E-1,-8.20683E-2,-8.373911E-1,-1.8464386E-1,3.2639172E-2,6.2299658E-2,-4.3494787E-2,1.0554073E-2,7.7963315E-2,-1.599554E-2,-2.6171843E-2,8.1495576E-2,-1.056949E-2,2.1070844E-2,-7.523449E-2,-1.5513884E-2,1.24075614E-1,4.7130387E-2,5.8393277E-2,-8.920591E-2,-4.103096E-2,2.5649382E-2,-4.582515E-2,4.683776E-2,-8.195168E-2,2.0891612E-2,-4.593272E-2,6.125943E-2,-6.2369443E-2,-1.0081475E-1,1.5563464E-1,-1.651038E-2,-4.2099565E-2,1.9533433E-2,1.4208916E-2,1.3205074E-1,-7.293674E-2,3.0664405E-2,-4.9820665E-2,-8.8888004E-2,-4.4406955E-3,-6.149709E-2,-2.6363337E-2,-9.414788E-2,-2.6393592E-2,5.5318058E-2,-7.194822E-2,3.7032656E-2,-3.89565E-2,-8.457252E-2,4.3102533E-2,-5.7859827E-2,3.12536E-3,9.3192145E-2,-1.2703965E-2,-8.847495E-2,4.539978E-2,-5.5265915E-2],"categories":[],"categories_nodes":[],"categories_segments":[],"categories_sizes":[],"default_left":[0,0,0,0,0,0,0,0,0,0,0,0,0,0,0,0,0,0,0,0,0,0,0,0,0,0,0,0,0,0,0,0,0,0,0,0,0,0,0,0,0,0,0,0,0,0,0,0,0,0,0,0,0,0,0,0,0,0,0,0,0,0,0,0,0,0,0,0,0,0,0,0,0,0,0,0,0,0,0,0,0,0,0,0,0,0,0,0,0,0,0,0,0,0,0,0,0,0,0,0,0,0,0,0,0,0,0,0,0,0,0,0,0,0,0],"id":12,"left_children":[1,3,5,7,9,11,13,15,17,19,21,23,25,27,29,31,33,35,37,39,41,43,45,47,49,51,53,55,-1,57,59,61,63,65,67,69,71,73,75,77,79,-1,81,83,85,87,89,91,93,95,97,99,-1,101,103,105,107,109,-1,111,113,-1,-1,-1,-1,-1,-1,-1,-1,-1,-1,-1,-1,-1,-1,-1,-1,-1,-1,-1,-1,-1,-1,-1,-1,-1,-1,-1,-1,-1,-1,-1,-1,-1,-1,-1,-1,-1,-1,-1,-1,-1,-1,-1,-1,-1,-1,-1,-1,-1,-1,-1,-1,-1,-1],"loss_changes":[1.18761055E2,2.0965807E1,1.4256561E1,1.0528259E1,3.9993796E0,4.488533E0,7.3824005E0,7.2217903E0,6.922307E0,3.6098464E0,6.4142504E0,3.4076576E0,4.2641683E0,1.4271927E0,6.988129E0,5.654709E0,2.024746E0,4.0403786E0,2.4045773E0,3.7852817E0,3.7919662E0,1.8127127E0,3.322511E0,2.578259E0,3.1715584E0,1.9730506E0,3.3346143E0,1.7030773E0,0E0,3.760253E0,1.151125E0,2.2304516E0,1.8698692E0,1.5409317E0,2.962789E0,3.8600616E0,4.9614406E-1,1.8586483E0,3.223283E0,1.905539E0,3.8460927E0,0E0,2.2656574E0,1.4864653E0,1.3622475E-1,2.412376E0,3.6507425E0,8.546717E-1,1.1379614E0,6.7952156E-1,1.2204673E0,1.4075692E0,0E0,1.5779095E0,1.4606627E0,1.5427399E-1,3.093799E0,2.7142894E0,0E0,3.751459E-1,1.4611652E0,0E0,0E0,0E0,0E0,0E0,0E0,0E0,0E0,0E0,0E0,0E0,0E0,0E0,0E0,0E0,0E0,0E0,0E0,0E0,0E0,0E0,0E0,0E0,0E0,0E0,0E0,0E0,0E0,0E0,0E0,0E0,0E0,0E0,0E0,0E0,0E0,0E0,0E0,0E0,0E0,0E0,0E0,0E0,0E0,0E0,0E0,0E0,0E0,0E0,0E0,0E0,0E0,0E0,0E0],"parents":[2147483647,0,0,1,1,2,2,3,3,4,4,5,5,6,6,7,7,8,8,9,9,10,10,11,11,12,12,13,13,14,14,15,15,16,16,17,17,18,18,19,19,20,20,21,21,22,22,23,23,24,24,25,25,26,26,27,27,29,29,30,30,31,31,32,32,33,33,34,34,35,35,36,36,37,37,38,38,39,39,40,40,42,42,43,43,44,44,45,45,46,46,47,47,48,48,49,49,50,50,51,51,53,53,54,54,55,55,56,56,57,57,59,59,60,60],"right_children":[2,4,6,8,10,12,14,16,18,20,22,24,26,28,30,32,34,36,38,40,42,44,46,48,50,52,54,56,-1,58,60,62,64,66,68,70,72,74,76,78,80,-1,82,84,86,88,90,92,94,96,98,100,-1,102,104,106,108,110,-1,112,114,-1,-1,-1,-1,-1,-1,-1,-1,-1,-1,-1,-1,-1,-1,-1,-1,-1,-1,-1,-1,-1,-1,-1,-1,-1,-1,-1,-1,-1,-1,-1,-1,-1,-1,-1,-1,-1,-1,-1,-1,-1,-1,-1,-1,-1,-1,-1,-1,-1,-1,-1,-1,-1,-1],"split_conditions":[1E0,1E0,1E0,1.1E1,1.8E1,2E0,1.0315E2,7.58E1,9.565E1,3.885E1,7.845E1,2.4E1,8.2E1,2E0,6.9919E3,6E0,1E0,6E1,1.064E2,2.515E1,4.56E1,1.97E1,8.055E1,5.52E1,1.002E2,6.9E1,6.9E1,3.00415E3,-9.361645E-2,1.1165E2,1.1515E2,6.415E1,2E0,1.0245E2,4.151E2,1E0,5.8789E3,1.22205E3,5.1255E3,2E0,1.5E1,1.3193777E-1,4.91E1,3E1,1E0,3.2E1,9.92E1,8.257E2,7.97E1,5.4E1,1.091E2,3.2294E3,5.3965986E-2,3.1E1,1.091E2,9E0,3.26805E3,1.084E2,-8.20683E-2,1.0495E2,2E0,3.2639172E-2,6.2299658E-2,-4.3494787E-2,1.0554073E-2,7.7963315E-2,-1.599554E-2,-2.6171843E-2,8.1495576E-2,-1.056949E-2,2.1070844E-2,-7.523449E-2,-1.5513884E-2,1.24075614E-1,4.7130387E-2,5.8393277E-2,-8.920591E-2,-4.103096E-2,2.5649382E-2,-4.582515E-2,4.683776E-2,-8.195168E-2,2.0891612E-2,-4.593272E-2,6.125943E-2,-6.2369443E-2,-1.0081475E-1,1.5563464E-1,-1.651038E-2,-4.2099565E-2,1.9533433E-2,1.4208916E-2,1.3205074E-1,-7.293674E-2,3.0664405E-2,-4.9820665E-2,-8.8888004E-2,-4.4406955E-3,-6.149709E-2,-2.6363337E-2,-9.414788E-2,-2.6393592E-2,5.5318058E-2,-7.194822E-2,3.7032656E-2,-3.89565E-2,-8.457252E-2,4.3102533E-2,-5.7859827E-2,3.12536E-3,9.3192145E-2,-1.2703965E-2,-8.847495E-2,4.539978E-2,-5.5265915E-2],"split_indices":[3,6,5,0,0,7,1,1,1,1,1,0,1,3,2,0,5,0,1,2,1,1,1,1,1,0,0,2,0,1,1,1,7,1,2,4,2,2,2,7,0,0,1,0,4,0,1,2,1,0,1,2,0,0,1,0,2,1,0,1,3,0,0,0,0,0,0,0,0,0,0,0,0,0,0,0,0,0,0,0,0,0,0,0,0,0,0,0,0,0,0,0,0,0,0,0,0,0,0,0,0,0,0,0,0,0,0,0,0,0,0,0,0,0,0],"split_type":[0,0,0,0,0,0,0,0,0,0,0,0,0,0,0,0,0,0,0,0,0,0,0,0,0,0,0,0,0,0,0,0,0,0,0,0,0,0,0,0,0,0,0,0,0,0,0,0,0,0,0,0,0,0,0,0,0,0,0,0,0,0,0,0,0,0,0,0,0,0,0,0,0,0,0,0,0,0,0,0,0,0,0,0,0,0,0,0,0,0,0,0,0,0,0,0,0,0,0,0,0,0,0,0,0,0,0,0,0,0,0,0,0,0,0],"sum_hessian":[9.273424E2,6.561588E2,2.7118356E2,4.8267548E2,1.7348334E2,9.43486E1,1.7683496E2,2.3329556E2,2.4937993E2,1.11454445E2,6.2028896E1,5.3188816E1,4.1159786E1,1.4435396E2,3.2481E1,1.4802383E2,8.527173E1,1.9118715E2,5.819278E1,6.416888E1,4.728557E1,2.326044E1,3.8768456E1,4.908154E0,4.8280663E1,1.7828081E1,2.3331705E1,6.5210434E1,7.914352E1,1.4839127E1,1.7641874E1,1.14965775E2,3.3058056E1,7.6665825E1,8.605905E0,1.8363414E2,7.55302E0,5.4187195E1,4.0055842E0,2.856485E1,3.5604027E1,2.0676618E0,4.5217903E1,3.2708848E0,1.9989555E1,2.1910596E0,3.6577396E1,2.303056E0,2.605098E0,2.9143423E1,1.913724E1,1.645097E1,1.377112E0,1.8987795E1,4.34391E0,4.1958992E1,2.3251444E1,1.28137455E1,2.0253806E0,1.3492491E1,4.1493835E0,7.148694E1,4.3478836E1,7.430045E0,2.562801E1,7.519729E1,1.4685304E0,5.0934396E0,3.512465E0,5.3977345E1,1.2965678E2,4.9118266E0,2.6411936E0,2.880241E0,5.1306957E1,1.8730743E0,2.1325102E0,4.2266755E0,2.4338175E1,3.1229624E1,4.374402E0,1.2763798E0,4.3941525E1,1.991229E0,1.2796557E0,1.3343187E1,6.646368E0,1.1654686E0,1.0255909E0,1.8031996E1,1.8545399E1,1.2737564E0,1.0292996E0,1.5206571E0,1.084441E0,1.4003882E1,1.513954E1,1.5065085E1,4.0721545E0,1.2754099E1,3.6968713E0,2.1202493E0,1.6867546E1,3.3406823E0,1.0032282E0,3.3203511E0,3.863864E1,2.790333E0,2.0461111E1,7.9355664E0,4.878179E0,1.0734735E0,1.2419017E1,1.4315246E0,2.7178588E0],"tree_param":{"num_deleted":"0","num_feature":"8","num_nodes":"115","size_leaf_vector":"1"}},{"base_weights":[-1.2969162E-2,1.9657512E-1,-5.3859276E-1,2.9760504E-1,-7.130154E-2,-2.329659E-1,-7.0583427E-1,5.6973416E-1,2.1904114E-1,-1.1578035E-3,-2.9940373E-1,-4.116082E-1,-4.3906015E-3,-8.046725E-1,-2.73868E-1,4.4335926E-1,9.10023E-2,-4.337666E-2,3.1071508E-1,-9.1186754E-2,6.9873804E-1,5.6594707E-2,-3.412378E-1,2.8937167E-1,-4.90413E-1,-3.3483982E-1,2.4260552E-1,-6.623068E-1,-9.144488E-2,1.8446998E-1,-6.694032E-1,4.8777682E-1,-1.1282617E-1,7.471615E-2,-3.516171E-1,4.7757992E-1,1.8693437E-1,8.0576286E-2,-2.121216E-1,-3.1567745E-2,8.2550126E-1,-8.327791E-1,-2.1132953E-1,8.39351E-1,-3.165323E-1,-7.802015E-1,-2.4561086E-1,-4.3384355E-1,4.983873E-2,7.7924615E-1,1.9943116E-2,-7.906004E-1,-4.1408342E-1,3.7486678E-1,-7.946422E-2,-8.041791E-1,-1.7160921E-1,2.7198697E-2,6.066327E-2,2.77453E-2,-9.305205E-2,1.325644E-3,1.2258666E-1,-5.885156E-2,-9.5431384E-4,5.0483998E-2,-3.1998195E-2,7.124226E-3,3.9230537E-2,3.7738013E-5,5.38445E-2,-4.1187834E-2,1.0168924E-2,9.115798E-2,-5.7438985E-3,-2.6384488E-2,-1.0346905E-1,-7.0065506E-2,-3.1953051E-3,1.3354826E-2,1.2061771E-1,-7.066464E-2,2.877937E-2,-3.4577366E-2,-9.044393E-2,3.4173198E-2,-4.321855E-2,-2.4316708E-2,-9.1497E-2,-2.4839731E-2,1.2478705E-1,-8.164231E-2,2.948921E-2,-9.260472E-2,-6.4593084E-2,3.9046943E-2,-5.4479342E-2,2.843764E-3,8.213041E-2,-1.0485661E-1,-5.241532E-2,4.2118832E-2,-5.2959133E-2],"categories":[],"categories_nodes":[],"categories_segments":[],"categories_sizes":[],"default_left":[0,0,0,0,0,0,0,0,0,0,0,0,0,0,0,0,0,0,0,0,0,0,0,0,0,0,0,0,0,0,0,0,0,0,0,0,0,0,0,0,0,0,0,0,0,0,0,0,0,0,0,0,0,0,0,0,0,0,0,0,0,0,0,0,0,0,0,0,0,0,0,0,0,0,0,0,0,0,0,0,0,0,0,0,0,0,0,0,0,0,0,0,0,0,0,0,0,0,0,0,0,0,0],"id":13,"left_children":[1,3,5,7,9,11,13,15,17,19,21,23,25,27,29,31,-1,33,35,37,39,-1,41,43,45,47,49,51,-1,53,55,57,59,61,63,65,67,69,71,-1,73,75,77,79,81,83,85,87,-1,89,91,93,95,97,-1,99,101,-1,-1,-1,-1,-1,-1,-1,-1,-1,-1,-1,-1,-1,-1,-1,-1,-1,-1,-1,-1,-1,-1,-1,-1,-1,-1,-1,-1,-1,-1,-1,-1,-1,-1,-1,-1,-1,-1,-1,-1,-1,-1,-1,-1,-1,-1],"loss_changes":[1.0070488E2,1.7714294E1,1.3155853E1,1.002861E1,2.8772023E0,3.8226743E0,6.9498367E0,4.1449585E0,8.918007E0,8.794093E0,1.7242157E0,3.045473E0,3.5173368E0,1.5222168E0,6.0674667E0,2.008541E0,0E0,3.5465224E0,5.57913E0,2.5855021E0,2.3060293E0,0E0,2.4400015E0,2.2453682E0,3.1866674E0,1.7363555E0,2.9324417E0,1.6758575E0,0E0,3.27536E0,1.0572481E0,1.7179451E0,2.3836231E0,4.98889E0,2.1793725E0,2.6886616E0,3.754673E0,1.9023728E0,4.6075826E0,0E0,1.1480303E0,6.7170715E-1,2.939414E0,7.1608543E-1,1.0409741E0,8.3944416E-1,3.13644E0,1.3375497E0,0E0,3.7814412E0,4.4864492E0,1.9290733E-1,2.6876116E0,2.149774E0,0E0,3.9125824E-1,1.2983456E0,0E0,0E0,0E0,0E0,0E0,0E0,0E0,0E0,0E0,0E0,0E0,0E0,0E0,0E0,0E0,0E0,0E0,0E0,0E0,0E0,0E0,0E0,0E0,0E0,0E0,0E0,0E0,0E0,0E0,0E0,0E0,0E0,0E0,0E0,0E0,0E0,0E0,0E0,0E0,0E0,0E0,0E0,0E0,0E0,0E0,0E0],"parents":[2147483647,0,0,1,1,2,2,3,3,4,4,5,5,6,6,7,7,8,8,9,9,10,10,11,11,12,12,13,13,14,14,15,15,17,17,18,18,19,19,20,20,22,22,23,23,24,24,25,25,26,26,27,27,29,29,30,30,31,31,32,32,33,33,34,34,35,35,36,36,37,37,38,38,40,40,41,41,42,42,43,43,44,44,45,45,46,46,47,47,49,49,50,50,51,51,52,52,53,53,55,55,56,56],"right_children":[2,4,6,8,10,12,14,16,18,20,22,24,26,28,30,32,-1,34,36,38,40,-1,42,44,46,48,50,52,-1,54,56,58,60,62,64,66,68,70,72,-1,74,76,78,80,82,84,86,88,-1,90,92,94,96,98,-1,100,102,-1,-1,-1,-1,-1,-1,-1,-1,-1,-1,-1,-1,-1,-1,-1,-1,-1,-1,-1,-1,-1,-1,-1,-1,-1,-1,-1,-1,-1,-1,-1,-1,-1,-1,-1,-1,-1,-1,-1,-1,-1,-1,-1,-1,-1,-1],"split_conditions":[1E0,1E0,1E0,3E0,3E1,2E0,1.0315E2,7.58E1,6.99E1,9.005E1,1.97E1,2.4E1,8.2E1,2E0,6.9919E3,1E0,9.10023E-2,5.55E1,1.6E1,4E0,3E0,5.6594707E-2,5.55E1,5.52E1,4.8587E3,6.9E1,4.5E1,3.00415E3,-9.144488E-2,1.1165E2,1.1515E2,4.56E1,6.02E1,5.5E1,8.7735E2,1.0245E2,9.565E1,5.475E1,5.955E2,-3.1567745E-2,1.0465E2,1.4689E3,3.8E1,8.257E2,7.97E1,2.5768E3,5.54255E3,3.2294E3,4.983873E-2,3.1E1,5.42425E3,2.08E1,3.26805E3,1.084E2,-7.946422E-2,7E1,2E0,2.7198697E-2,6.066327E-2,2.77453E-2,-9.305205E-2,1.325644E-3,1.2258666E-1,-5.885156E-2,-9.5431384E-4,5.0483998E-2,-3.1998195E-2,7.124226E-3,3.9230537E-2,3.7738013E-5,5.38445E-2,-4.1187834E-2,1.0168924E-2,9.115798E-2,-5.7438985E-3,-2.6384488E-2,-1.0346905E-1,-7.0065506E-2,-3.1953051E-3,1.3354826E-2,1.2061771E-1,-7.066464E-2,2.877937E-2,-3.4577366E-2,-9.044393E-2,3.4173198E-2,-4.321855E-2,-2.4316708E-2,-9.1497E-2,-2.4839731E-2,1.2478705E-1,-8.164231E-2,2.948921E-2,-9.260472E-2,-6.4593084E-2,3.9046943E-2,-5.4479342E-2,2.843764E-3,8.213041E-2,-1.0485661E-1,-5.241532E-2,4.2118832E-2,-5.2959133E-2],"split_indices":[3,5,5,0,0,7,1,1,1,1,1,0,1,3,2,6,0,1,0,0,0,0,1,1,2,0,0,2,0,1,1,1,1,1,2,1,1,1,2,0,1,2,0,2,1,2,2,2,0,0,2,1,2,1,0,0,3,0,0,0,0,0,0,0,0,0,0,0,0,0,0,0,0,0,0,0,0,0,0,0,0,0,0,0,0,0,0,0,0,0,0,0,0,0,0,0,0,0,0,0,0,0,0],"split_type":[0,0,0,0,0,0,0,0,0,0,0,0,0,0,0,0,0,0,0,0,0,0,0,0,0,0,0,0,0,0,0,0,0,0,0,0,0,0,0,0,0,0,0,0,0,0,0,0,0,0,0,0,0,0,0,0,0,0,0,0,0,0,0,0,0,0,0,0,0,0,0,0,0,0,0,0,0,0,0,0,0,0,0,0,0,0,0,0,0,0,0,0,0,0,0,0,0,0,0,0,0,0,0],"sum_hessian":[9.123622E2,6.5275995E2,2.5960223E2,4.7391245E2,1.788475E2,9.266104E1,1.669412E2,1.0476752E2,3.6914493E2,1.3755348E2,4.1294018E1,5.1562096E1,4.109895E1,1.3515384E2,3.1787367E1,7.8075195E1,2.6692327E1,9.5707596E1,2.7343735E2,1.2264689E2,1.4906591E1,1.3265051E0,3.9967514E1,4.940818E0,4.6621277E1,1.7427515E1,2.3671432E1,6.1904705E1,7.324913E1,1.4971882E1,1.6815485E1,7.241504E1,5.6601496E0,6.9744675E1,2.5962917E1,1.15234764E2,1.5820258E2,5.081226E1,7.1834625E1,1.490295E0,1.3416296E1,7.22382E0,3.2743694E1,2.3879695E0,2.5528483E0,2.0347511E1,2.6273766E1,1.6005116E1,1.4224007E0,6.2085285E0,1.7462904E1,3.9370907E1,2.2533796E1,1.3051115E1,1.920766E0,1.2748413E1,4.067072E0,2.6887522E1,4.552752E1,4.2786646E0,1.3814847E0,6.717E1,2.5746782E0,1.4914002E1,1.1048915E1,1.117812E2,3.4535708E0,1.020573E2,5.614527E1,4.409035E1,6.721909E0,4.370295E1,2.813168E1,1.2194963E1,1.2213329E0,2.4963856E0,4.7274346E0,8.003819E0,2.4739872E1,1.2831502E0,1.1048194E0,1.4484857E0,1.1043626E0,5.3662515E0,1.498126E1,6.1335487E0,2.0140217E1,1.2540548E1,3.4645662E0,2.0916672E0,4.1168613E0,3.8332365E0,1.3629668E1,1.754412E1,2.1826786E1,2.8715272E0,1.966227E1,7.9475927E0,5.103523E0,5.341871E0,7.406543E0,1.4648324E0,2.6022396E0],"tree_param":{"num_deleted":"0","num_feature":"8","num_nodes":"103","size_leaf_vector":"1"}},{"base_weights":[-1.2771239E-2,1.7814758E-1,-5.093833E-1,2.693318E-1,-7.686578E-2,-2.1507922E-1,-6.767382E-1,5.39104E-1,2.0578632E-1,2.3482546E-2,-2.8550047E-1,-3.832283E-1,-5.327776E-3,-7.7711123E-1,-2.574392E-1,3.2849625E-1,8.138057E-1,-4.4161372E-2,2.9478043E-1,-5.5746246E-2,3.9720026E-1,-6.2554574E-1,-8.92216E-2,2.7357593E-1,-4.598875E-1,-3.119737E-1,2.1697333E-1,-6.311465E-1,-8.9278445E-2,1.6454461E-1,-6.3896567E-1,6.0527235E-1,1.7742376E-1,1.21096864E-1,6.9965124E-1,-3.3378118E-1,1.0081677E-1,4.5240054E-1,1.8473853E-1,1.3809504E-1,-1.3301681E-1,5.632758E-1,-1.0972807E-1,1.5710086E-1,-7.579063E-1,8.788186E-1,-1.7834188E-1,7.763153E-1,-3.0165553E-1,-7.4865097E-1,-2.2518222E-1,-4.0794304E-1,4.607123E-2,3.740692E-1,-4.3605116E-1,-8.829173E-1,-4.910364E-1,3.3795792E-1,-7.699407E-2,-7.72591E-1,-1.5970288E-1,3.1721916E-2,1.2252089E-1,-8.257096E-2,2.7732437E-2,2.4835428E-2,8.60466E-2,-6.3340046E-2,8.036084E-3,2.5630698E-2,-1.9242128E-2,3.669467E-2,1.221592E-1,-1.7964527E-2,2.2670694E-2,-1.2368819E-2,3.2121185E-2,-3.8145665E-2,2.4962013E-3,2.5978882E-2,1.2739447E-1,-6.133898E-2,2.97112E-2,-2.7068753E-2,5.2341223E-2,-3.85704E-2,-8.104289E-2,1.4129263E-1,-1.5410385E-2,-4.6985384E-2,4.255672E-3,1.2553282E-2,1.10561155E-1,-6.850036E-2,2.701582E-2,-3.2386154E-2,-8.750397E-2,3.0628545E-2,-4.0168002E-2,-2.2406489E-2,-8.8975966E-2,6.92801E-2,1.8138258E-2,-7.015287E-2,3.296778E-2,-4.3914944E-2,-9.5735535E-2,-7.8331694E-2,-3.6653645E-2,2.587838E-3,7.283108E-2,-1.0174253E-1,-4.9621E-2,3.910425E-2,-5.0726302E-2],"categories":[],"categories_nodes":[],"categories_segments":[],"categories_sizes":[],"default_left":[0,0,0,0,0,0,0,0,0,0,0,0,0,0,0,0,0,0,0,0,0,0,0,0,0,0,0,0,0,0,0,0,0,0,0,0,0,0,0,0,0,0,0,0,0,0,0,0,0,0,0,0,0,0,0,0,0,0,0,0,0,0,0,0,0,0,0,0,0,0,0,0,0,0,0,0,0,0,0,0,0,0,0,0,0,0,0,0,0,0,0,0,0,0,0,0,0,0,0,0,0,0,0,0,0,0,0,0,0,0,0,0,0,0,0],"id":14,"left_children":[1,3,5,7,9,11,13,15,17,19,21,23,25,27,29,31,33,35,37,39,41,43,45,47,49,51,53,55,-1,57,59,61,63,-1,65,67,69,71,73,75,77,79,81,83,85,87,89,91,93,95,97,99,-1,101,103,105,107,109,-1,111,113,-1,-1,-1,-1,-1,-1,-1,-1,-1,-1,-1,-1,-1,-1,-1,-1,-1,-1,-1,-1,-1,-1,-1,-1,-1,-1,-1,-1,-1,-1,-1,-1,-1,-1,-1,-1,-1,-1,-1,-1,-1,-1,-1,-1,-1,-1,-1,-1,-1,-1,-1,-1,-1,-1],"loss_changes":[8.534673E1,1.5141047E1,1.2165649E1,8.103939E0,3.6086714E0,3.2454786E0,6.4866104E0,4.982395E0,8.676167E0,3.4892104E0,3.6785736E0,2.6983438E0,2.9296732E0,1.592598E0,5.2864676E0,2.1103473E0,9.0738297E-1,4.363875E0,4.9001694E0,1.4785845E0,1.7965131E0,2.2230234E0,3.317825E0,1.9598039E0,2.9575596E0,1.526801E0,2.7205563E0,1.6783676E0,0E0,2.8654065E0,9.721298E-1,2.8816328E0,3.809199E0,0E0,2.1398687E0,4.3485603E0,3.217937E0,7.271061E0,2.6541471E0,1.3952129E0,2.7652512E0,3.0516262E0,1.3956423E0,7.318699E-1,3.0379295E-2,2.0149262E0,2.2341018E0,6.0354733E-1,9.5294255E-1,8.038578E-1,2.643958E0,1.2704971E0,0E0,1.1415467E0,1.3078637E0,2.452631E-1,1.1945257E0,1.7177029E0,0E0,3.826766E-1,1.1535678E0,0E0,0E0,0E0,0E0,0E0,0E0,0E0,0E0,0E0,0E0,0E0,0E0,0E0,0E0,0E0,0E0,0E0,0E0,0E0,0E0,0E0,0E0,0E0,0E0,0E0,0E0,0E0,0E0,0E0,0E0,0E0,0E0,0E0,0E0,0E0,0E0,0E0,0E0,0E0,0E0,0E0,0E0,0E0,0E0,0E0,0E0,0E0,0E0,0E0,0E0,0E0,0E0,0E0,0E0],"parents":[2147483647,0,0,1,1,2,2,3,3,4,4,5,5,6,6,7,7,8,8,9,9,10,10,11,11,12,12,13,13,14,14,15,15,16,16,17,17,18,18,19,19,20,20,21,21,22,22,23,23,24,24,25,25,26,26,27,27,29,29,30,30,31,31,32,32,34,34,35,35,36,36,37,37,38,38,39,39,40,40,41,41,42,42,43,43,44,44,45,45,46,46,47,47,48,48,49,49,50,50,51,51,53,53,54,54,55,55,56,56,57,57,59,59,60,60],"right_children":[2,4,6,8,10,12,14,16,18,20,22,24,26,28,30,32,34,36,38,40,42,44,46,48,50,52,54,56,-1,58,60,62,64,-1,66,68,70,72,74,76,78,80,82,84,86,88,90,92,94,96,98,100,-1,102,104,106,108,110,-1,112,114,-1,-1,-1,-1,-1,-1,-1,-1,-1,-1,-1,-1,-1,-1,-1,-1,-1,-1,-1,-1,-1,-1,-1,-1,-1,-1,-1,-1,-1,-1,-1,-1,-1,-1,-1,-1,-1,-1,-1,-1,-1,-1,-1,-1,-1,-1,-1,-1,-1,-1,-1,-1,-1,-1],"split_conditions":[1E0,1E0,1E0,1.0725E2,2E1,2E0,1.0315E2,6.315E1,6.99E1,8.38E1,7.79E1,2.4E1,8.2E1,2E0,6.9919E3,4.38E1,6.99E1,2E0,1.1676E3,2.095E1,1E2,1.97E1,8.055E1,5.52E1,4.8587E3,6.9E1,6.9E1,2.485E1,-8.9278445E-2,1.1165E2,1.1515E2,3.135E1,4.415E1,1.21096864E-1,7.245E1,2.1E1,3E0,1.0602E3,1.41585E3,1.99E1,2.09E1,9.595E1,1.0315E2,3E1,2.3E1,3.2E1,9.86E1,8.257E2,7.97E1,2.5768E3,5.54255E3,3.2294E3,4.607123E-2,4.5E1,1.091E2,2.3255E2,1E0,1.084E2,-7.699407E-2,7E1,2E0,3.1721916E-2,1.2252089E-1,-8.257096E-2,2.7732437E-2,2.4835428E-2,8.60466E-2,-6.3340046E-2,8.036084E-3,2.5630698E-2,-1.9242128E-2,3.669467E-2,1.221592E-1,-1.7964527E-2,2.2670694E-2,-1.2368819E-2,3.2121185E-2,-3.8145665E-2,2.4962013E-3,2.5978882E-2,1.2739447E-1,-6.133898E-2,2.97112E-2,-2.7068753E-2,5.2341223E-2,-3.85704E-2,-8.104289E-2,1.4129263E-1,-1.5410385E-2,-4.6985384E-2,4.255672E-3,1.2553282E-2,1.10561155E-1,-6.850036E-2,2.701582E-2,-3.2386154E-2,-8.750397E-2,3.0628545E-2,-4.0168002E-2,-2.2406489E-2,-8.8975966E-2,6.92801E-2,1.8138258E-2,-7.015287E-2,3.296778E-2,-4.3914944E-2,-9.5735535E-2,-7.8331694E-2,-3.6653645E-2,2.587838E-3,7.283108E-2,-1.0174253E-1,-4.9621E-2,3.910425E-2,-5.0726302E-2],"split_indices":[3,6,5,2,0,7,1,1,1,1,1,0,1,3,2,1,1,7,2,2,1,1,1,1,2,0,0,1,0,1,1,1,1,0,1,0,7,2,2,1,1,1,1,0,0,0,1,2,1,2,2,2,0,0,1,2,7,1,0,0,3,0,0,0,0,0,0,0,0,0,0,0,0,0,0,0,0,0,0,0,0,0,0,0,0,0,0,0,0,0,0,0,0,0,0,0,0,0,0,0,0,0,0,0,0,0,0,0,0,0,0,0,0,0,0],"split_type":[0,0,0,0,0,0,0,0,0,0,0,0,0,0,0,0,0,0,0,0,0,0,0,0,0,0,0,0,0,0,0,0,0,0,0,0,0,0,0,0,0,0,0,0,0,0,0,0,0,0,0,0,0,0,0,0,0,0,0,0,0,0,0,0,0,0,0,0,0,0,0,0,0,0,0,0,0,0,0,0,0,0,0,0,0,0,0,0,0,0,0,0,0,0,0,0,0,0,0,0,0,0,0,0,0,0,0,0,0,0,0,0,0,0,0],"sum_hessian":[8.982053E2,6.4924805E2,2.4895729E2,4.7820264E2,1.7104541E2,9.107728E1,1.5788002E2,8.974044E1,3.884622E2,1.1609427E2,5.4951138E1,5.0092846E1,4.0984432E1,1.2669744E2,3.1182577E1,5.203907E1,3.7701366E1,1.021287E2,2.863335E2,9.648922E1,1.9605045E1,1.9310114E1,3.5641026E1,4.9670644E0,4.5125782E1,1.7055038E1,2.3929392E1,5.8868816E1,6.782862E1,1.5076298E1,1.610628E1,1.7313303E1,3.472577E1,6.271966E0,3.1429401E1,3.3634823E1,6.849387E1,1.164391E2,1.698944E2,2.727639E1,6.921283E1,1.468343E1,4.9216156E0,2.7662706E0,1.6543842E1,2.257595E0,3.338343E1,2.4640074E0,2.503057E0,1.9251032E1,2.587475E1,1.5590686E1,1.464353E0,1.963342E1,4.295971E0,1.915202E1,3.9716797E1,1.3254919E1,1.821379E0,1.21160965E1,3.9901829E0,1.2852903E1,4.4603996E0,2.4870646E0,3.22387E1,8.925623E0,2.2503778E1,1.9208572E1,1.4426251E1,4.484215E1,2.3651722E1,1.06126015E2,1.0313091E1,1.7208025E1,1.5268637E2,1.13602915E1,1.5916098E1,2.635382E1,4.285901E1,1.1246312E1,3.4371176E0,1.9722759E0,2.9493399E0,1.3964748E0,1.3697958E0,3.0776436E0,1.3466199E1,1.245615E0,1.0119798E0,1.3905642E1,1.9477789E1,1.2919551E0,1.1720523E0,1.3799678E0,1.1230893E0,5.2312737E0,1.4019758E1,6.267324E0,1.9607426E1,1.2344596E1,3.24609E0,6.419369E0,1.3214052E1,3.252258E0,1.0437129E0,3.7421925E0,1.5409828E1,1.0283402E1,2.9433393E1,7.958526E0,5.2963924E0,5.0029516E0,7.113145E0,1.4954221E0,2.4947608E0],"tree_param":{"num_deleted":"0","num_feature":"8","num_nodes":"115","size_leaf_vector":"1"}},{"base_weights":[-1.2212699E-2,1.6192937E-1,-4.813363E-1,2.4787176E-1,